<?xml version="1.0"?>
<opencv_storage>
<cascade>
  <stageType>BOOST</stageType>
  <featureType>HOG</featureType>
  <height>32</height>
  <width>32</width>
  <stageParams>
    <boostType>GAB</boostType>
    <minHitRate>9.9800002574920654e-01</minHitRate>
    <maxFalseAlarm>3.0000001192092896e-01</maxFalseAlarm>
    <weightTrimRate>9.4999999999999996e-01</weightTrimRate>
    <maxDepth>1</maxDepth>
    <maxWeakCount>150</maxWeakCount></stageParams>
  <featureParams>
    <maxCatCount>0</maxCatCount>
    <featSize>36</featSize></featureParams>
  <stageNum>9</stageNum>
  <stages>
    <!-- stage 0 -->
    <_>
      <maxWeakCount>16</maxWeakCount>
      <stageThreshold>-1.4748500585556030e+00</stageThreshold>
      <weakClassifiers>
        <_>
          <internalNodes>
            0 -1 568 1.6677983105182648e-02</internalNodes>
          <leafValues>
            -6.8627452850341797e-01 4.5656397938728333e-01</leafValues></_>
        <_>
          <internalNodes>
            0 -1 382 1.6449965536594391e-02</internalNodes>
          <leafValues>
            -6.2696450948715210e-01 3.6623463034629822e-01</leafValues></_>
        <_>
          <internalNodes>
            0 -1 559 1.4390671625733376e-02</internalNodes>
          <leafValues>
            -6.7665189504623413e-01 2.5858566164970398e-01</leafValues></_>
        <_>
          <internalNodes>
            0 -1 150 2.9937885701656342e-02</internalNodes>
          <leafValues>
            3.3386880159378052e-01 -6.1333829164505005e-01</leafValues></_>
        <_>
          <internalNodes>
            0 -1 313 2.0612113177776337e-02</internalNodes>
          <leafValues>
            -5.1112407445907593e-01 3.7112027406692505e-01</leafValues></_>
        <_>
          <internalNodes>
            0 -1 540 3.2546229660511017e-02</internalNodes>
          <leafValues>
            2.8632661700248718e-01 -5.1117283105850220e-01</leafValues></_>
        <_>
          <internalNodes>
            0 -1 567 1.5860693529248238e-02</internalNodes>
          <leafValues>
            -5.4876059293746948e-01 2.1472196280956268e-01</leafValues></_>
        <_>
          <internalNodes>
            0 -1 306 1.5643728896975517e-02</internalNodes>
          <leafValues>
            -5.0974339246749878e-01 2.0571997761726379e-01</leafValues></_>
        <_>
          <internalNodes>
            0 -1 157 1.4004945755004883e-02</internalNodes>
          <leafValues>
            3.9579254388809204e-01 -3.0284804105758667e-01</leafValues></_>
        <_>
          <internalNodes>
            0 -1 177 3.6201119422912598e-02</internalNodes>
          <leafValues>
            2.8316044807434082e-01 -3.7543031573295593e-01</leafValues></_>
        <_>
          <internalNodes>
            0 -1 401 1.2967233546078205e-02</internalNodes>
          <leafValues>
            -6.0126233100891113e-01 1.7649599909782410e-01</leafValues></_>
        <_>
          <internalNodes>
            0 -1 558 3.5714104771614075e-02</internalNodes>
          <leafValues>
            -1.7110103368759155e-01 5.2680784463882446e-01</leafValues></_>
        <_>
          <internalNodes>
            0 -1 455 5.9146150946617126e-02</internalNodes>
          <leafValues>
            -1.5393549203872681e-01 5.6084865331649780e-01</leafValues></_>
        <_>
          <internalNodes>
            0 -1 375 3.5630453377962112e-02</internalNodes>
          <leafValues>
            -1.7594997584819794e-01 3.8196128606796265e-01</leafValues></_>
        <_>
          <internalNodes>
            0 -1 521 2.0519997924566269e-02</internalNodes>
          <leafValues>
            -3.2553675770759583e-01 2.5027731060981750e-01</leafValues></_>
        <_>
          <internalNodes>
            0 -1 30 5.4141789674758911e-02</internalNodes>
          <leafValues>
            -1.2238415330648422e-01 6.8080002069473267e-01</leafValues></_></weakClassifiers></_>
    <!-- stage 1 -->
    <_>
      <maxWeakCount>48</maxWeakCount>
      <stageThreshold>-1.4487826824188232e+00</stageThreshold>
      <weakClassifiers>
        <_>
          <internalNodes>
            0 -1 558 1.6685768961906433e-02</internalNodes>
          <leafValues>
            -6.0580021142959595e-01 2.7259546518325806e-01</leafValues></_>
        <_>
          <internalNodes>
            0 -1 355 3.6919496953487396e-02</internalNodes>
          <leafValues>
            -2.9125851392745972e-01 5.6889897584915161e-01</leafValues></_>
        <_>
          <internalNodes>
            0 -1 305 3.2395444810390472e-02</internalNodes>
          <leafValues>
            -2.9061508178710938e-01 4.8532682657241821e-01</leafValues></_>
        <_>
          <internalNodes>
            0 -1 21 2.7494059875607491e-02</internalNodes>
          <leafValues>
            -3.1599134206771851e-01 3.2615435123443604e-01</leafValues></_>
        <_>
          <internalNodes>
            0 -1 283 4.2372256517410278e-02</internalNodes>
          <leafValues>
            -1.7903409898281097e-01 4.8329976201057434e-01</leafValues></_>
        <_>
          <internalNodes>
            0 -1 432 1.2534268200397491e-02</internalNodes>
          <leafValues>
            -4.8571422696113586e-01 1.6472028195858002e-01</leafValues></_>
        <_>
          <internalNodes>
            0 -1 480 2.2804487496614456e-02</internalNodes>
          <leafValues>
            -3.4797346591949463e-01 1.8791331350803375e-01</leafValues></_>
        <_>
          <internalNodes>
            0 -1 82 2.5183117017149925e-02</internalNodes>
          <leafValues>
            2.1800935268402100e-01 -3.1733927130699158e-01</leafValues></_>
        <_>
          <internalNodes>
            0 -1 85 2.1126307547092438e-02</internalNodes>
          <leafValues>
            2.7966168522834778e-01 -2.6206490397453308e-01</leafValues></_>
        <_>
          <internalNodes>
            0 -1 70 1.6066577285528183e-02</internalNodes>
          <leafValues>
            -3.2189112901687622e-01 1.9772143661975861e-01</leafValues></_>
        <_>
          <internalNodes>
            0 -1 54 5.8177549391984940e-02</internalNodes>
          <leafValues>
            -9.8158665001392365e-02 5.8788442611694336e-01</leafValues></_>
        <_>
          <internalNodes>
            0 -1 570 1.0968871414661407e-02</internalNodes>
          <leafValues>
            -6.7716795206069946e-01 8.6461558938026428e-02</leafValues></_>
        <_>
          <internalNodes>
            0 -1 521 2.4572530761361122e-02</internalNodes>
          <leafValues>
            -2.7398505806922913e-01 2.3003090918064117e-01</leafValues></_>
        <_>
          <internalNodes>
            0 -1 15 3.7272207438945770e-02</internalNodes>
          <leafValues>
            -1.7031003534793854e-01 3.1841748952865601e-01</leafValues></_>
        <_>
          <internalNodes>
            0 -1 445 4.7734241932630539e-02</internalNodes>
          <leafValues>
            -1.0647414624691010e-01 5.0742024183273315e-01</leafValues></_>
        <_>
          <internalNodes>
            0 -1 525 1.3311016373336315e-02</internalNodes>
          <leafValues>
            -3.4091565012931824e-01 1.5383389592170715e-01</leafValues></_>
        <_>
          <internalNodes>
            0 -1 390 2.6574600487947464e-02</internalNodes>
          <leafValues>
            2.1583597362041473e-01 -2.5636291503906250e-01</leafValues></_>
        <_>
          <internalNodes>
            0 -1 494 9.9758962169289589e-03</internalNodes>
          <leafValues>
            -4.9097317457199097e-01 9.2677667737007141e-02</leafValues></_>
        <_>
          <internalNodes>
            0 -1 165 3.6327596753835678e-02</internalNodes>
          <leafValues>
            -1.3167053461074829e-01 3.2128909230232239e-01</leafValues></_>
        <_>
          <internalNodes>
            0 -1 419 1.7391368746757507e-02</internalNodes>
          <leafValues>
            -2.7167046070098877e-01 1.5321458876132965e-01</leafValues></_>
        <_>
          <internalNodes>
            0 -1 162 1.6283998265862465e-02</internalNodes>
          <leafValues>
            1.6598589718341827e-01 -2.5680622458457947e-01</leafValues></_>
        <_>
          <internalNodes>
            0 -1 342 1.8575999885797501e-02</internalNodes>
          <leafValues>
            -2.7691549062728882e-01 1.6189464926719666e-01</leafValues></_>
        <_>
          <internalNodes>
            0 -1 369 1.9328461959958076e-02</internalNodes>
          <leafValues>
            2.3663511872291565e-01 -1.7272748053073883e-01</leafValues></_>
        <_>
          <internalNodes>
            0 -1 292 2.8696443885564804e-02</internalNodes>
          <leafValues>
            1.4295631647109985e-01 -3.3568066358566284e-01</leafValues></_>
        <_>
          <internalNodes>
            0 -1 568 1.1410001665353775e-02</internalNodes>
          <leafValues>
            -5.1711052656173706e-01 8.4535434842109680e-02</leafValues></_>
        <_>
          <internalNodes>
            0 -1 453 1.8585529178380966e-02</internalNodes>
          <leafValues>
            1.8396741151809692e-01 -2.5072261691093445e-01</leafValues></_>
        <_>
          <internalNodes>
            0 -1 512 2.2265762090682983e-02</internalNodes>
          <leafValues>
            -2.2417135536670685e-01 2.1637441217899323e-01</leafValues></_>
        <_>
          <internalNodes>
            0 -1 46 4.8168059438467026e-02</internalNodes>
          <leafValues>
            -7.4622772634029388e-02 5.0215625762939453e-01</leafValues></_>
        <_>
          <internalNodes>
            0 -1 71 6.2509521842002869e-02</internalNodes>
          <leafValues>
            -6.2635503709316254e-02 5.5567753314971924e-01</leafValues></_>
        <_>
          <internalNodes>
            0 -1 565 7.3221279308199883e-03</internalNodes>
          <leafValues>
            -5.2924191951751709e-01 7.6107449829578400e-02</leafValues></_>
        <_>
          <internalNodes>
            0 -1 340 3.0811965465545654e-02</internalNodes>
          <leafValues>
            9.0148501098155975e-02 -4.4640785455703735e-01</leafValues></_>
        <_>
          <internalNodes>
            0 -1 164 5.1273871213197708e-02</internalNodes>
          <leafValues>
            -7.6839610934257507e-02 4.8786801099777222e-01</leafValues></_>
        <_>
          <internalNodes>
            0 -1 194 6.4439818263053894e-02</internalNodes>
          <leafValues>
            7.3237687349319458e-02 -4.8213136196136475e-01</leafValues></_>
        <_>
          <internalNodes>
            0 -1 204 1.3388888910412788e-02</internalNodes>
          <leafValues>
            2.1503694355487823e-01 -1.6973894834518433e-01</leafValues></_>
        <_>
          <internalNodes>
            0 -1 558 6.0331933200359344e-03</internalNodes>
          <leafValues>
            -9.2677897214889526e-01 3.7483315914869308e-02</leafValues></_>
        <_>
          <internalNodes>
            0 -1 569 4.4302418828010559e-02</internalNodes>
          <leafValues>
            -8.4109723567962646e-02 3.9540076255798340e-01</leafValues></_>
        <_>
          <internalNodes>
            0 -1 467 2.5550480931997299e-02</internalNodes>
          <leafValues>
            -1.5674330294132233e-01 2.0482608675956726e-01</leafValues></_>
        <_>
          <internalNodes>
            0 -1 387 6.9042025133967400e-03</internalNodes>
          <leafValues>
            -5.7333904504776001e-01 6.9084912538528442e-02</leafValues></_>
        <_>
          <internalNodes>
            0 -1 195 5.4768852889537811e-02</internalNodes>
          <leafValues>
            -8.7708204984664917e-02 4.2943483591079712e-01</leafValues></_>
        <_>
          <internalNodes>
            0 -1 357 4.3216228485107422e-02</internalNodes>
          <leafValues>
            -8.7328813970088959e-02 3.5294443368911743e-01</leafValues></_>
        <_>
          <internalNodes>
            0 -1 202 5.6160300970077515e-02</internalNodes>
          <leafValues>
            -6.7377202212810516e-02 4.3162670731544495e-01</leafValues></_>
        <_>
          <internalNodes>
            0 -1 396 4.6517357230186462e-02</internalNodes>
          <leafValues>
            -7.4951149523258209e-02 4.4646936655044556e-01</leafValues></_>
        <_>
          <internalNodes>
            0 -1 495 5.8295717462897301e-03</internalNodes>
          <leafValues>
            -6.9520628452301025e-01 4.8305127769708633e-02</leafValues></_>
        <_>
          <internalNodes>
            0 -1 345 4.8170454800128937e-02</internalNodes>
          <leafValues>
            -8.6882598698139191e-02 3.7474617362022400e-01</leafValues></_>
        <_>
          <internalNodes>
            0 -1 246 1.1958567425608635e-02</internalNodes>
          <leafValues>
            -2.7628430724143982e-01 1.2093926966190338e-01</leafValues></_>
        <_>
          <internalNodes>
            0 -1 344 7.7781374566257000e-03</internalNodes>
          <leafValues>
            2.5638473033905029e-01 -1.3187672197818756e-01</leafValues></_>
        <_>
          <internalNodes>
            0 -1 203 6.4278848469257355e-02</internalNodes>
          <leafValues>
            -5.6000765413045883e-02 5.1394826173782349e-01</leafValues></_>
        <_>
          <internalNodes>
            0 -1 443 9.3445740640163422e-03</internalNodes>
          <leafValues>
            -3.8648369908332825e-01 8.4012269973754883e-02</leafValues></_></weakClassifiers></_>
    <!-- stage 2 -->
    <_>
      <maxWeakCount>76</maxWeakCount>
      <stageThreshold>-1.3670926094055176e+00</stageThreshold>
      <weakClassifiers>
        <_>
          <internalNodes>
            0 -1 54 4.5076295733451843e-02</internalNodes>
          <leafValues>
            -2.1313767135143280e-01 5.3602814674377441e-01</leafValues></_>
        <_>
          <internalNodes>
            0 -1 313 3.3647786825895309e-02</internalNodes>
          <leafValues>
            -2.3819072544574738e-01 4.4125658273696899e-01</leafValues></_>
        <_>
          <internalNodes>
            0 -1 355 4.6960815787315369e-02</internalNodes>
          <leafValues>
            -1.6683773696422577e-01 4.9268108606338501e-01</leafValues></_>
        <_>
          <internalNodes>
            0 -1 306 3.8681972771883011e-02</internalNodes>
          <leafValues>
            -2.4033167958259583e-01 3.2541763782501221e-01</leafValues></_>
        <_>
          <internalNodes>
            0 -1 150 2.9115397483110428e-02</internalNodes>
          <leafValues>
            1.5552194416522980e-01 -4.5326292514801025e-01</leafValues></_>
        <_>
          <internalNodes>
            0 -1 22 2.0421579480171204e-02</internalNodes>
          <leafValues>
            -2.9050639271736145e-01 2.8568458557128906e-01</leafValues></_>
        <_>
          <internalNodes>
            0 -1 559 1.1411356739699841e-02</internalNodes>
          <leafValues>
            -5.9009999036788940e-01 5.4975986480712891e-02</leafValues></_>
        <_>
          <internalNodes>
            0 -1 567 1.1304674670100212e-02</internalNodes>
          <leafValues>
            -5.6402403116226196e-01 9.0807847678661346e-02</leafValues></_>
        <_>
          <internalNodes>
            0 -1 540 2.6403132826089859e-02</internalNodes>
          <leafValues>
            2.3782813549041748e-01 -3.5471478104591370e-01</leafValues></_>
        <_>
          <internalNodes>
            0 -1 30 3.0588798224925995e-02</internalNodes>
          <leafValues>
            -2.1072722971439362e-01 2.2633461654186249e-01</leafValues></_>
        <_>
          <internalNodes>
            0 -1 140 2.3233801126480103e-02</internalNodes>
          <leafValues>
            1.8481433391571045e-01 -2.2465239465236664e-01</leafValues></_>
        <_>
          <internalNodes>
            0 -1 569 9.3947891145944595e-03</internalNodes>
          <leafValues>
            -6.7616212368011475e-01 5.9612877666950226e-02</leafValues></_>
        <_>
          <internalNodes>
            0 -1 87 1.6307290643453598e-02</internalNodes>
          <leafValues>
            1.6042158007621765e-01 -2.6927989721298218e-01</leafValues></_>
        <_>
          <internalNodes>
            0 -1 261 6.2697683461010456e-03</internalNodes>
          <leafValues>
            -5.0214678049087524e-01 6.7185655236244202e-02</leafValues></_>
        <_>
          <internalNodes>
            0 -1 277 5.0728090107440948e-02</internalNodes>
          <leafValues>
            -9.4635829329490662e-02 4.1978049278259277e-01</leafValues></_>
        <_>
          <internalNodes>
            0 -1 71 3.8434386253356934e-02</internalNodes>
          <leafValues>
            -1.2633386254310608e-01 2.9358062148094177e-01</leafValues></_>
        <_>
          <internalNodes>
            0 -1 401 1.5345359221100807e-02</internalNodes>
          <leafValues>
            -3.7870660424232483e-01 9.9464580416679382e-02</leafValues></_>
        <_>
          <internalNodes>
            0 -1 314 3.9177378639578819e-03</internalNodes>
          <leafValues>
            -5.8652484416961670e-01 6.3512027263641357e-02</leafValues></_>
        <_>
          <internalNodes>
            0 -1 452 3.1206699088215828e-02</internalNodes>
          <leafValues>
            1.6662383079528809e-01 -2.1037833392620087e-01</leafValues></_>
        <_>
          <internalNodes>
            0 -1 521 1.6327906399965286e-02</internalNodes>
          <leafValues>
            -2.9016968607902527e-01 1.1419658362865448e-01</leafValues></_>
        <_>
          <internalNodes>
            0 -1 479 3.7379108369350433e-02</internalNodes>
          <leafValues>
            -9.7837932407855988e-02 3.5076051950454712e-01</leafValues></_>
        <_>
          <internalNodes>
            0 -1 21 5.0069518387317657e-02</internalNodes>
          <leafValues>
            -7.8559748828411102e-02 4.1192939877510071e-01</leafValues></_>
        <_>
          <internalNodes>
            0 -1 542 4.5383196324110031e-02</internalNodes>
          <leafValues>
            -8.5863269865512848e-02 3.8086807727813721e-01</leafValues></_>
        <_>
          <internalNodes>
            0 -1 563 8.2557564601302147e-03</internalNodes>
          <leafValues>
            -7.6335436105728149e-01 4.6743530780076981e-02</leafValues></_>
        <_>
          <internalNodes>
            0 -1 197 3.7356182932853699e-02</internalNodes>
          <leafValues>
            -1.0743262618780136e-01 2.9884657263755798e-01</leafValues></_>
        <_>
          <internalNodes>
            0 -1 520 4.0460303425788879e-02</internalNodes>
          <leafValues>
            -1.1233737319707870e-01 3.1659302115440369e-01</leafValues></_>
        <_>
          <internalNodes>
            0 -1 15 1.5132291242480278e-02</internalNodes>
          <leafValues>
            -2.9337674379348755e-01 9.2461146414279938e-02</leafValues></_>
        <_>
          <internalNodes>
            0 -1 568 6.0576386749744415e-03</internalNodes>
          <leafValues>
            -7.5927364826202393e-01 3.0313570052385330e-02</leafValues></_>
        <_>
          <internalNodes>
            0 -1 200 5.7227440178394318e-02</internalNodes>
          <leafValues>
            -6.6202074289321899e-02 4.5901498198509216e-01</leafValues></_>
        <_>
          <internalNodes>
            0 -1 511 1.0991724207997322e-02</internalNodes>
          <leafValues>
            -3.5858151316642761e-01 7.8197240829467773e-02</leafValues></_>
        <_>
          <internalNodes>
            0 -1 242 2.7011541649699211e-02</internalNodes>
          <leafValues>
            9.3193970620632172e-02 -3.3098787069320679e-01</leafValues></_>
        <_>
          <internalNodes>
            0 -1 527 3.9366539567708969e-02</internalNodes>
          <leafValues>
            -1.0239841789007187e-01 2.5912642478942871e-01</leafValues></_>
        <_>
          <internalNodes>
            0 -1 400 3.7785109132528305e-02</internalNodes>
          <leafValues>
            -1.3870017230510712e-01 1.9440130889415741e-01</leafValues></_>
        <_>
          <internalNodes>
            0 -1 476 1.8823914229869843e-02</internalNodes>
          <leafValues>
            -2.0781321823596954e-01 1.2566986680030823e-01</leafValues></_>
        <_>
          <internalNodes>
            0 -1 557 4.6791754662990570e-02</internalNodes>
          <leafValues>
            -6.4950466156005859e-02 3.6911106109619141e-01</leafValues></_>
        <_>
          <internalNodes>
            0 -1 112 3.8345176726579666e-03</internalNodes>
          <leafValues>
            -5.6410086154937744e-01 4.2752455919981003e-02</leafValues></_>
        <_>
          <internalNodes>
            0 -1 500 3.6209255922585726e-03</internalNodes>
          <leafValues>
            -6.1468642950057983e-01 3.2697536051273346e-02</leafValues></_>
        <_>
          <internalNodes>
            0 -1 14 1.3487786054611206e-01</internalNodes>
          <leafValues>
            -4.9718968570232391e-02 5.3881555795669556e-01</leafValues></_>
        <_>
          <internalNodes>
            0 -1 136 1.8541580066084862e-02</internalNodes>
          <leafValues>
            1.9385254383087158e-01 -1.3584963977336884e-01</leafValues></_>
        <_>
          <internalNodes>
            0 -1 439 2.6288993656635284e-02</internalNodes>
          <leafValues>
            1.5802499651908875e-01 -1.4308151602745056e-01</leafValues></_>
        <_>
          <internalNodes>
            0 -1 395 4.5697558671236038e-02</internalNodes>
          <leafValues>
            -5.4839991033077240e-02 4.1575083136558533e-01</leafValues></_>
        <_>
          <internalNodes>
            0 -1 393 4.1520968079566956e-03</internalNodes>
          <leafValues>
            -7.1645832061767578e-01 3.5149808973073959e-02</leafValues></_>
        <_>
          <internalNodes>
            0 -1 513 9.4564445316791534e-03</internalNodes>
          <leafValues>
            -3.4891077876091003e-01 6.0961663722991943e-02</leafValues></_>
        <_>
          <internalNodes>
            0 -1 375 4.5109547674655914e-02</internalNodes>
          <leafValues>
            -8.8448002934455872e-02 2.5991970300674438e-01</leafValues></_>
        <_>
          <internalNodes>
            0 -1 240 1.9238065928220749e-02</internalNodes>
          <leafValues>
            1.5929567813873291e-01 -1.3919413089752197e-01</leafValues></_>
        <_>
          <internalNodes>
            0 -1 233 1.6933519393205643e-02</internalNodes>
          <leafValues>
            -2.3537823557853699e-01 8.3934634923934937e-02</leafValues></_>
        <_>
          <internalNodes>
            0 -1 333 5.3330525755882263e-02</internalNodes>
          <leafValues>
            -6.6364496946334839e-02 3.3482640981674194e-01</leafValues></_>
        <_>
          <internalNodes>
            0 -1 82 9.5177842304110527e-03</internalNodes>
          <leafValues>
            2.1077899634838104e-01 -8.7755858898162842e-02</leafValues></_>
        <_>
          <internalNodes>
            0 -1 504 5.3263683803379536e-03</internalNodes>
          <leafValues>
            -5.9087741374969482e-01 3.6623124033212662e-02</leafValues></_>
        <_>
          <internalNodes>
            0 -1 543 4.9649156630039215e-02</internalNodes>
          <leafValues>
            7.2911530733108521e-02 -2.5915202498435974e-01</leafValues></_>
        <_>
          <internalNodes>
            0 -1 92 5.9706926345825195e-02</internalNodes>
          <leafValues>
            -5.3657595068216324e-02 3.8858211040496826e-01</leafValues></_>
        <_>
          <internalNodes>
            0 -1 94 5.3448729217052460e-02</internalNodes>
          <leafValues>
            -4.8679165542125702e-02 4.2582762241363525e-01</leafValues></_>
        <_>
          <internalNodes>
            0 -1 321 3.8522200193256140e-03</internalNodes>
          <leafValues>
            -6.0032117366790771e-01 3.8742791861295700e-02</leafValues></_>
        <_>
          <internalNodes>
            0 -1 130 7.6375707983970642e-02</internalNodes>
          <leafValues>
            3.5684872418642044e-02 -5.1243478059768677e-01</leafValues></_>
        <_>
          <internalNodes>
            0 -1 120 3.2006733119487762e-02</internalNodes>
          <leafValues>
            1.0556156188249588e-01 -1.8784263730049133e-01</leafValues></_>
        <_>
          <internalNodes>
            0 -1 156 1.6603277996182442e-02</internalNodes>
          <leafValues>
            1.4444191753864288e-01 -1.3928703963756561e-01</leafValues></_>
        <_>
          <internalNodes>
            0 -1 519 1.1406294070184231e-02</internalNodes>
          <leafValues>
            -3.0958607792854309e-01 7.2113305330276489e-02</leafValues></_>
        <_>
          <internalNodes>
            0 -1 456 4.5702937990427017e-02</internalNodes>
          <leafValues>
            -6.5576523542404175e-02 3.4228947758674622e-01</leafValues></_>
        <_>
          <internalNodes>
            0 -1 7 4.1037596762180328e-02</internalNodes>
          <leafValues>
            -8.3691947162151337e-02 2.4544416368007660e-01</leafValues></_>
        <_>
          <internalNodes>
            0 -1 235 8.5722953081130981e-03</internalNodes>
          <leafValues>
            -2.9927474260330200e-01 6.2469936907291412e-02</leafValues></_>
        <_>
          <internalNodes>
            0 -1 371 1.4880642294883728e-02</internalNodes>
          <leafValues>
            1.2344583868980408e-01 -1.7240166664123535e-01</leafValues></_>
        <_>
          <internalNodes>
            0 -1 538 3.1738341785967350e-03</internalNodes>
          <leafValues>
            -4.9113675951957703e-01 4.4970657676458359e-02</leafValues></_>
        <_>
          <internalNodes>
            0 -1 285 1.1750085279345512e-02</internalNodes>
          <leafValues>
            1.7758065462112427e-01 -1.1177686601877213e-01</leafValues></_>
        <_>
          <internalNodes>
            0 -1 292 6.4581148326396942e-02</internalNodes>
          <leafValues>
            3.3408049494028091e-02 -6.3606005907058716e-01</leafValues></_>
        <_>
          <internalNodes>
            0 -1 450 1.6533337533473969e-02</internalNodes>
          <leafValues>
            -2.3271031677722931e-01 8.5267938673496246e-02</leafValues></_>
        <_>
          <internalNodes>
            0 -1 191 6.3277348875999451e-02</internalNodes>
          <leafValues>
            -4.1919630020856857e-02 4.6269786357879639e-01</leafValues></_>
        <_>
          <internalNodes>
            0 -1 62 4.9945354461669922e-02</internalNodes>
          <leafValues>
            -5.3047515451908112e-02 3.7673139572143555e-01</leafValues></_>
        <_>
          <internalNodes>
            0 -1 443 8.2419682294130325e-03</internalNodes>
          <leafValues>
            -3.7530353665351868e-01 5.6467872112989426e-02</leafValues></_>
        <_>
          <internalNodes>
            0 -1 453 4.1855689138174057e-02</internalNodes>
          <leafValues>
            3.3956423401832581e-02 -4.9670055508613586e-01</leafValues></_>
        <_>
          <internalNodes>
            0 -1 554 1.3811476528644562e-02</internalNodes>
          <leafValues>
            -2.3503535985946655e-01 8.1837080419063568e-02</leafValues></_>
        <_>
          <internalNodes>
            0 -1 335 1.3152133673429489e-02</internalNodes>
          <leafValues>
            1.5539191663265228e-01 -1.3736280798912048e-01</leafValues></_>
        <_>
          <internalNodes>
            0 -1 73 2.7016853913664818e-02</internalNodes>
          <leafValues>
            9.4717353582382202e-02 -1.9913148880004883e-01</leafValues></_>
        <_>
          <internalNodes>
            0 -1 535 5.2916370332241058e-02</internalNodes>
          <leafValues>
            7.5645744800567627e-02 -2.8448438644409180e-01</leafValues></_>
        <_>
          <internalNodes>
            0 -1 282 1.4981999993324280e-03</internalNodes>
          <leafValues>
            -7.3376709222793579e-01 2.4889919906854630e-02</leafValues></_>
        <_>
          <internalNodes>
            0 -1 4 2.8851591050624847e-02</internalNodes>
          <leafValues>
            1.1799032241106033e-01 -1.5820874273777008e-01</leafValues></_>
        <_>
          <internalNodes>
            0 -1 459 4.3544981628656387e-02</internalNodes>
          <leafValues>
            -3.8249611854553223e-02 4.8849496245384216e-01</leafValues></_></weakClassifiers></_>
    <!-- stage 3 -->
    <_>
      <maxWeakCount>99</maxWeakCount>
      <stageThreshold>-1.1733603477478027e+00</stageThreshold>
      <weakClassifiers>
        <_>
          <internalNodes>
            0 -1 71 3.3574491739273071e-02</internalNodes>
          <leafValues>
            -2.6570865511894226e-01 3.8474091887474060e-01</leafValues></_>
        <_>
          <internalNodes>
            0 -1 313 2.0649794489145279e-02</internalNodes>
          <leafValues>
            -3.7536293268203735e-01 2.5297805666923523e-01</leafValues></_>
        <_>
          <internalNodes>
            0 -1 475 2.1970080211758614e-02</internalNodes>
          <leafValues>
            -3.3640435338020325e-01 2.1737655997276306e-01</leafValues></_>
        <_>
          <internalNodes>
            0 -1 283 5.1380153745412827e-02</internalNodes>
          <leafValues>
            -1.3037452101707458e-01 5.0725376605987549e-01</leafValues></_>
        <_>
          <internalNodes>
            0 -1 379 3.0019229277968407e-02</internalNodes>
          <leafValues>
            5.8498401194810867e-02 -4.8254972696304321e-01</leafValues></_>
        <_>
          <internalNodes>
            0 -1 342 2.5420011952519417e-02</internalNodes>
          <leafValues>
            -2.2489042580127716e-01 2.3727411031723022e-01</leafValues></_>
        <_>
          <internalNodes>
            0 -1 141 4.3216891586780548e-02</internalNodes>
          <leafValues>
            -1.3601419329643250e-01 3.3100500702857971e-01</leafValues></_>
        <_>
          <internalNodes>
            0 -1 539 3.9920538663864136e-02</internalNodes>
          <leafValues>
            5.8607913553714752e-02 -6.0604774951934814e-01</leafValues></_>
        <_>
          <internalNodes>
            0 -1 567 1.6958709806203842e-02</internalNodes>
          <leafValues>
            -3.5938385128974915e-01 1.1254506558179855e-01</leafValues></_>
        <_>
          <internalNodes>
            0 -1 469 4.2023476213216782e-02</internalNodes>
          <leafValues>
            6.0331489890813828e-02 -6.8139702081680298e-01</leafValues></_>
        <_>
          <internalNodes>
            0 -1 375 3.3180177211761475e-02</internalNodes>
          <leafValues>
            -1.7670428752899170e-01 2.1361090242862701e-01</leafValues></_>
        <_>
          <internalNodes>
            0 -1 69 1.3597939163446426e-02</internalNodes>
          <leafValues>
            -2.7547842264175415e-01 1.3407588005065918e-01</leafValues></_>
        <_>
          <internalNodes>
            0 -1 438 5.2569434046745300e-02</internalNodes>
          <leafValues>
            -1.0368476063013077e-01 3.1078314781188965e-01</leafValues></_>
        <_>
          <internalNodes>
            0 -1 236 1.3285137712955475e-02</internalNodes>
          <leafValues>
            -3.0159020423889160e-01 1.0894832760095596e-01</leafValues></_>
        <_>
          <internalNodes>
            0 -1 208 2.8889264911413193e-02</internalNodes>
          <leafValues>
            1.0315934568643570e-01 -2.7591732144355774e-01</leafValues></_>
        <_>
          <internalNodes>
            0 -1 551 3.2876987010240555e-02</internalNodes>
          <leafValues>
            6.3748829066753387e-02 -3.9771187305450439e-01</leafValues></_>
        <_>
          <internalNodes>
            0 -1 30 1.0874383151531219e-02</internalNodes>
          <leafValues>
            -3.3574166893959045e-01 7.7422522008419037e-02</leafValues></_>
        <_>
          <internalNodes>
            0 -1 21 1.8829867243766785e-02</internalNodes>
          <leafValues>
            -1.9406659901142120e-01 1.2080218642950058e-01</leafValues></_>
        <_>
          <internalNodes>
            0 -1 90 1.0159778408706188e-02</internalNodes>
          <leafValues>
            2.3086632788181305e-01 -1.1836816370487213e-01</leafValues></_>
        <_>
          <internalNodes>
            0 -1 400 5.2508443593978882e-02</internalNodes>
          <leafValues>
            -9.1100156307220459e-02 2.9323855042457581e-01</leafValues></_>
        <_>
          <internalNodes>
            0 -1 145 4.6253516338765621e-03</internalNodes>
          <leafValues>
            -5.0900387763977051e-01 5.3757701069116592e-02</leafValues></_>
        <_>
          <internalNodes>
            0 -1 511 1.7046518623828888e-02</internalNodes>
          <leafValues>
            -2.5918883085250854e-01 9.5292821526527405e-02</leafValues></_>
        <_>
          <internalNodes>
            0 -1 73 2.1894322708249092e-02</internalNodes>
          <leafValues>
            1.1531936377286911e-01 -1.9179897010326385e-01</leafValues></_>
        <_>
          <internalNodes>
            0 -1 532 3.3203673083335161e-03</internalNodes>
          <leafValues>
            -4.7505840659141541e-01 5.0631921738386154e-02</leafValues></_>
        <_>
          <internalNodes>
            0 -1 59 4.3851073831319809e-02</internalNodes>
          <leafValues>
            5.1947109401226044e-02 -4.2842409014701843e-01</leafValues></_>
        <_>
          <internalNodes>
            0 -1 479 1.7472881823778152e-02</internalNodes>
          <leafValues>
            -2.4195262789726257e-01 9.3033671379089355e-02</leafValues></_>
        <_>
          <internalNodes>
            0 -1 453 4.4067569077014923e-02</internalNodes>
          <leafValues>
            3.7654560059309006e-02 -6.0446673631668091e-01</leafValues></_>
        <_>
          <internalNodes>
            0 -1 547 1.9608564674854279e-02</internalNodes>
          <leafValues>
            -2.1108047664165497e-01 1.0213389247655869e-01</leafValues></_>
        <_>
          <internalNodes>
            0 -1 278 3.9887338876724243e-02</internalNodes>
          <leafValues>
            -9.4425514340400696e-02 2.2734199464321136e-01</leafValues></_>
        <_>
          <internalNodes>
            0 -1 522 3.8100019097328186e-02</internalNodes>
          <leafValues>
            -7.9897873103618622e-02 3.1287741661071777e-01</leafValues></_>
        <_>
          <internalNodes>
            0 -1 79 1.4069274999201298e-02</internalNodes>
          <leafValues>
            1.6071923077106476e-01 -1.2377714365720749e-01</leafValues></_>
        <_>
          <internalNodes>
            0 -1 557 9.3677192926406860e-03</internalNodes>
          <leafValues>
            -5.7137316465377808e-01 3.8285888731479645e-02</leafValues></_>
        <_>
          <internalNodes>
            0 -1 275 5.1144254393875599e-04</internalNodes>
          <leafValues>
            -6.4418441057205200e-01 2.8397010639309883e-02</leafValues></_>
        <_>
          <internalNodes>
            0 -1 48 1.0926770046353340e-02</internalNodes>
          <leafValues>
            1.7813496291637421e-01 -1.0896735638380051e-01</leafValues></_>
        <_>
          <internalNodes>
            0 -1 403 1.4696570113301277e-02</internalNodes>
          <leafValues>
            -2.3657537996768951e-01 8.3585143089294434e-02</leafValues></_>
        <_>
          <internalNodes>
            0 -1 128 8.9973926544189453e-02</internalNodes>
          <leafValues>
            2.5896506384015083e-02 -7.0793843269348145e-01</leafValues></_>
        <_>
          <internalNodes>
            0 -1 302 5.7917669415473938e-02</internalNodes>
          <leafValues>
            2.7930857613682747e-02 -5.5209594964981079e-01</leafValues></_>
        <_>
          <internalNodes>
            0 -1 255 9.8469868302345276e-02</internalNodes>
          <leafValues>
            -4.1859496384859085e-02 4.7686225175857544e-01</leafValues></_>
        <_>
          <internalNodes>
            0 -1 518 2.8140814974904060e-02</internalNodes>
          <leafValues>
            -1.0450229793787003e-01 1.6577903926372528e-01</leafValues></_>
        <_>
          <internalNodes>
            0 -1 285 5.3422067314386368e-02</internalNodes>
          <leafValues>
            -4.7220006585121155e-02 4.4159507751464844e-01</leafValues></_>
        <_>
          <internalNodes>
            0 -1 376 4.5250225812196732e-03</internalNodes>
          <leafValues>
            -4.3389460444450378e-01 4.4668704271316528e-02</leafValues></_>
        <_>
          <internalNodes>
            0 -1 21 5.7965457439422607e-02</internalNodes>
          <leafValues>
            -5.4510246962308884e-02 3.0843132734298706e-01</leafValues></_>
        <_>
          <internalNodes>
            0 -1 448 5.7293083518743515e-02</internalNodes>
          <leafValues>
            2.8547663241624832e-02 -6.2125402688980103e-01</leafValues></_>
        <_>
          <internalNodes>
            0 -1 150 2.8593286871910095e-02</internalNodes>
          <leafValues>
            6.7188888788223267e-02 -2.4081878364086151e-01</leafValues></_>
        <_>
          <internalNodes>
            0 -1 136 2.1109163761138916e-02</internalNodes>
          <leafValues>
            1.2799622118473053e-01 -1.3356521725654602e-01</leafValues></_>
        <_>
          <internalNodes>
            0 -1 515 2.7978408616036177e-03</internalNodes>
          <leafValues>
            -5.8646619319915771e-01 3.1893033534288406e-02</leafValues></_>
        <_>
          <internalNodes>
            0 -1 287 1.2576742097735405e-02</internalNodes>
          <leafValues>
            1.4396829903125763e-01 -1.1997266858816147e-01</leafValues></_>
        <_>
          <internalNodes>
            0 -1 107 1.0096892714500427e-02</internalNodes>
          <leafValues>
            -2.7121680974960327e-01 5.9121306985616684e-02</leafValues></_>
        <_>
          <internalNodes>
            0 -1 304 3.3723788801580667e-03</internalNodes>
          <leafValues>
            -4.7817692160606384e-01 3.3766046166419983e-02</leafValues></_>
        <_>
          <internalNodes>
            0 -1 372 1.5115705318748951e-02</internalNodes>
          <leafValues>
            1.0821879655122757e-01 -1.5270222723484039e-01</leafValues></_>
        <_>
          <internalNodes>
            0 -1 429 4.5524425804615021e-03</internalNodes>
          <leafValues>
            -6.0657465457916260e-01 2.6198524981737137e-02</leafValues></_>
        <_>
          <internalNodes>
            0 -1 8 1.5023031830787659e-01</internalNodes>
          <leafValues>
            -2.8705796226859093e-02 6.1619639396667480e-01</leafValues></_>
        <_>
          <internalNodes>
            0 -1 416 1.8523931503295898e-02</internalNodes>
          <leafValues>
            -1.8534936010837555e-01 9.5851987600326538e-02</leafValues></_>
        <_>
          <internalNodes>
            0 -1 480 2.6085874065756798e-02</internalNodes>
          <leafValues>
            -1.5168710052967072e-01 1.2096855044364929e-01</leafValues></_>
        <_>
          <internalNodes>
            0 -1 541 1.9125051330775023e-03</internalNodes>
          <leafValues>
            -8.3486902713775635e-01 1.7121169716119766e-02</leafValues></_>
        <_>
          <internalNodes>
            0 -1 286 1.2896581552922726e-02</internalNodes>
          <leafValues>
            1.2934809923171997e-01 -1.1998821049928665e-01</leafValues></_>
        <_>
          <internalNodes>
            0 -1 557 3.5523138940334320e-02</internalNodes>
          <leafValues>
            -8.2399383187294006e-02 1.9698707759380341e-01</leafValues></_>
        <_>
          <internalNodes>
            0 -1 560 1.2323647737503052e-02</internalNodes>
          <leafValues>
            -3.1361123919487000e-01 5.5246952921152115e-02</leafValues></_>
        <_>
          <internalNodes>
            0 -1 245 4.5377749949693680e-02</internalNodes>
          <leafValues>
            -5.7342853397130966e-02 3.0810230970382690e-01</leafValues></_>
        <_>
          <internalNodes>
            0 -1 335 1.5909770503640175e-02</internalNodes>
          <leafValues>
            1.2944667041301727e-01 -1.5561266243457794e-01</leafValues></_>
        <_>
          <internalNodes>
            0 -1 530 4.9513235688209534e-02</internalNodes>
          <leafValues>
            3.3930175006389618e-02 -4.5997598767280579e-01</leafValues></_>
        <_>
          <internalNodes>
            0 -1 244 1.1386243859305978e-03</internalNodes>
          <leafValues>
            -4.5300996303558350e-01 3.2334446907043457e-02</leafValues></_>
        <_>
          <internalNodes>
            0 -1 546 7.3030546307563782e-02</internalNodes>
          <leafValues>
            1.4020718634128571e-02 -8.8979381322860718e-01</leafValues></_>
        <_>
          <internalNodes>
            0 -1 279 1.1565610766410828e-02</internalNodes>
          <leafValues>
            1.8388304114341736e-01 -7.6224170625209808e-02</leafValues></_>
        <_>
          <internalNodes>
            0 -1 536 4.4624423608183861e-03</internalNodes>
          <leafValues>
            -4.0064615011215210e-01 3.8466986268758774e-02</leafValues></_>
        <_>
          <internalNodes>
            0 -1 371 1.0638348758220673e-02</internalNodes>
          <leafValues>
            1.3152295351028442e-01 -1.1174634099006653e-01</leafValues></_>
        <_>
          <internalNodes>
            0 -1 352 2.9802455101162195e-03</internalNodes>
          <leafValues>
            -3.1590005755424500e-01 4.6390309929847717e-02</leafValues></_>
        <_>
          <internalNodes>
            0 -1 340 2.2762976586818695e-02</internalNodes>
          <leafValues>
            7.9285778105258942e-02 -1.7769381403923035e-01</leafValues></_>
        <_>
          <internalNodes>
            0 -1 54 6.2627285718917847e-02</internalNodes>
          <leafValues>
            -5.1508873701095581e-02 2.8158983588218689e-01</leafValues></_>
        <_>
          <internalNodes>
            0 -1 37 6.9692853139713407e-04</internalNodes>
          <leafValues>
            -7.4147355556488037e-01 1.8386261537671089e-02</leafValues></_>
        <_>
          <internalNodes>
            0 -1 4 4.2029512114822865e-03</internalNodes>
          <leafValues>
            3.1916242837905884e-01 -4.6560131013393402e-02</leafValues></_>
        <_>
          <internalNodes>
            0 -1 114 2.3011690936982632e-03</internalNodes>
          <leafValues>
            -6.2624198198318481e-01 2.2730542346835136e-02</leafValues></_>
        <_>
          <internalNodes>
            0 -1 360 4.3102991767227650e-03</internalNodes>
          <leafValues>
            -4.9209406971931458e-01 2.2309323772788048e-02</leafValues></_>
        <_>
          <internalNodes>
            0 -1 264 6.0315556824207306e-02</internalNodes>
          <leafValues>
            -3.4050125628709793e-02 3.6406069993972778e-01</leafValues></_>
        <_>
          <internalNodes>
            0 -1 11 1.4473103918135166e-02</internalNodes>
          <leafValues>
            -1.4300064742565155e-01 8.4698550403118134e-02</leafValues></_>
        <_>
          <internalNodes>
            0 -1 10 4.8784814774990082e-02</internalNodes>
          <leafValues>
            3.8230281323194504e-02 -3.6301803588867188e-01</leafValues></_>
        <_>
          <internalNodes>
            0 -1 163 4.7612845897674561e-02</internalNodes>
          <leafValues>
            -6.1324045062065125e-02 2.2659732401371002e-01</leafValues></_>
        <_>
          <internalNodes>
            0 -1 148 1.7412712331861258e-03</internalNodes>
          <leafValues>
            -5.1219791173934937e-01 2.5646500289440155e-02</leafValues></_>
        <_>
          <internalNodes>
            0 -1 462 3.3729758113622665e-02</internalNodes>
          <leafValues>
            -8.7060712277889252e-02 1.5119805932044983e-01</leafValues></_>
        <_>
          <internalNodes>
            0 -1 157 1.3192587532103062e-02</internalNodes>
          <leafValues>
            1.4895975589752197e-01 -9.2741847038269043e-02</leafValues></_>
        <_>
          <internalNodes>
            0 -1 439 3.5495467483997345e-02</internalNodes>
          <leafValues>
            8.4736034274101257e-02 -1.7328138649463654e-01</leafValues></_>
        <_>
          <internalNodes>
            0 -1 112 7.9174274578690529e-03</internalNodes>
          <leafValues>
            -3.0053505301475525e-01 5.0995867699384689e-02</leafValues></_>
        <_>
          <internalNodes>
            0 -1 468 5.5468477308750153e-02</internalNodes>
          <leafValues>
            2.0618228241801262e-02 -6.7521876096725464e-01</leafValues></_>
        <_>
          <internalNodes>
            0 -1 319 2.4882044643163681e-02</internalNodes>
          <leafValues>
            6.6842988133430481e-02 -2.1074570715427399e-01</leafValues></_>
        <_>
          <internalNodes>
            0 -1 490 2.5847710669040680e-02</internalNodes>
          <leafValues>
            -9.1680608689785004e-02 1.4627572894096375e-01</leafValues></_>
        <_>
          <internalNodes>
            0 -1 217 1.3309755921363831e-01</internalNodes>
          <leafValues>
            -2.2587183862924576e-02 5.7052928209304810e-01</leafValues></_>
        <_>
          <internalNodes>
            0 -1 240 1.5564542263746262e-02</internalNodes>
          <leafValues>
            1.5211975574493408e-01 -1.0924043506383896e-01</leafValues></_>
        <_>
          <internalNodes>
            0 -1 502 8.1610500812530518e-02</internalNodes>
          <leafValues>
            2.2783992812037468e-02 -5.7427853345870972e-01</leafValues></_>
        <_>
          <internalNodes>
            0 -1 358 6.0139611363410950e-02</internalNodes>
          <leafValues>
            4.5757900923490524e-02 -2.7976828813552856e-01</leafValues></_>
        <_>
          <internalNodes>
            0 -1 3 1.2634380161762238e-01</internalNodes>
          <leafValues>
            1.3700059615075588e-02 -8.2509094476699829e-01</leafValues></_>
        <_>
          <internalNodes>
            0 -1 350 9.2110298573970795e-02</internalNodes>
          <leafValues>
            -2.7946151793003082e-02 5.3352677822113037e-01</leafValues></_>
        <_>
          <internalNodes>
            0 -1 288 1.1901657562702894e-03</internalNodes>
          <leafValues>
            -5.9202355146408081e-01 2.3914655670523643e-02</leafValues></_>
        <_>
          <internalNodes>
            0 -1 144 5.4127056151628494e-02</internalNodes>
          <leafValues>
            3.3499915152788162e-02 -3.2408028841018677e-01</leafValues></_>
        <_>
          <internalNodes>
            0 -1 394 6.7710369825363159e-02</internalNodes>
          <leafValues>
            -3.0435729771852493e-02 4.1321879625320435e-01</leafValues></_>
        <_>
          <internalNodes>
            0 -1 467 1.1171377263963223e-02</internalNodes>
          <leafValues>
            -1.8910692632198334e-01 6.5634727478027344e-02</leafValues></_>
        <_>
          <internalNodes>
            0 -1 126 1.7666101455688477e-02</internalNodes>
          <leafValues>
            1.3177102804183960e-01 -9.3266576528549194e-02</leafValues></_>
        <_>
          <internalNodes>
            0 -1 201 1.1936200782656670e-02</internalNodes>
          <leafValues>
            -2.1034966409206390e-01 6.1307325959205627e-02</leafValues></_>
        <_>
          <internalNodes>
            0 -1 539 1.3217842206358910e-02</internalNodes>
          <leafValues>
            1.3489472866058350e-01 -9.6995450556278229e-02</leafValues></_>
        <_>
          <internalNodes>
            0 -1 133 2.7082052547484636e-03</internalNodes>
          <leafValues>
            -4.0845313668251038e-01 3.2234150916337967e-02</leafValues></_></weakClassifiers></_>
    <!-- stage 4 -->
    <_>
      <maxWeakCount>150</maxWeakCount>
      <stageThreshold>-1.2751672267913818e+00</stageThreshold>
      <weakClassifiers>
        <_>
          <internalNodes>
            0 -1 314 2.9776511713862419e-02</internalNodes>
          <leafValues>
            -2.4365004897117615e-01 2.7641409635543823e-01</leafValues></_>
        <_>
          <internalNodes>
            0 -1 141 6.0804508626461029e-02</internalNodes>
          <leafValues>
            -1.4154604077339172e-01 4.6486222743988037e-01</leafValues></_>
        <_>
          <internalNodes>
            0 -1 375 4.8251643776893616e-02</internalNodes>
          <leafValues>
            -1.2328305095434189e-01 3.2857465744018555e-01</leafValues></_>
        <_>
          <internalNodes>
            0 -1 22 3.6800645291805267e-02</internalNodes>
          <leafValues>
            -1.5971066057682037e-01 2.3019909858703613e-01</leafValues></_>
        <_>
          <internalNodes>
            0 -1 71 1.4422193169593811e-02</internalNodes>
          <leafValues>
            -3.1863823533058167e-01 8.6322754621505737e-02</leafValues></_>
        <_>
          <internalNodes>
            0 -1 518 2.2468896582722664e-02</internalNodes>
          <leafValues>
            -1.6099368035793304e-01 1.9144998490810394e-01</leafValues></_>
        <_>
          <internalNodes>
            0 -1 198 3.3466942608356476e-02</internalNodes>
          <leafValues>
            -1.6590583324432373e-01 1.8976737558841705e-01</leafValues></_>
        <_>
          <internalNodes>
            0 -1 199 2.5284729897975922e-02</internalNodes>
          <leafValues>
            -1.4738772809505463e-01 1.8401165306568146e-01</leafValues></_>
        <_>
          <internalNodes>
            0 -1 379 2.0849335938692093e-02</internalNodes>
          <leafValues>
            1.2101604789495468e-01 -2.1438983082771301e-01</leafValues></_>
        <_>
          <internalNodes>
            0 -1 471 4.1868299245834351e-02</internalNodes>
          <leafValues>
            2.8216563165187836e-02 -5.9731125831604004e-01</leafValues></_>
        <_>
          <internalNodes>
            0 -1 141 2.1968577057123184e-02</internalNodes>
          <leafValues>
            -1.9280894100666046e-01 1.1437289416790009e-01</leafValues></_>
        <_>
          <internalNodes>
            0 -1 240 2.4486783891916275e-02</internalNodes>
          <leafValues>
            1.2984028458595276e-01 -1.7963123321533203e-01</leafValues></_>
        <_>
          <internalNodes>
            0 -1 540 2.6073634624481201e-02</internalNodes>
          <leafValues>
            9.2030726373195648e-02 -2.2789630293846130e-01</leafValues></_>
        <_>
          <internalNodes>
            0 -1 330 2.5657722726464272e-02</internalNodes>
          <leafValues>
            -1.4456664025783539e-01 1.3366779685020447e-01</leafValues></_>
        <_>
          <internalNodes>
            0 -1 247 4.8547410406172276e-03</internalNodes>
          <leafValues>
            -4.7716474533081055e-01 3.0736375600099564e-02</leafValues></_>
        <_>
          <internalNodes>
            0 -1 283 8.1061020493507385e-02</internalNodes>
          <leafValues>
            -5.2034251391887665e-02 3.6973378062248230e-01</leafValues></_>
        <_>
          <internalNodes>
            0 -1 473 6.1993643641471863e-02</internalNodes>
          <leafValues>
            2.2928707301616669e-02 -6.9884151220321655e-01</leafValues></_>
        <_>
          <internalNodes>
            0 -1 21 3.4829296171665192e-02</internalNodes>
          <leafValues>
            -1.0034102946519852e-01 1.6546462476253510e-01</leafValues></_>
        <_>
          <internalNodes>
            0 -1 517 5.8912336826324463e-03</internalNodes>
          <leafValues>
            -6.1130899190902710e-01 2.5751084089279175e-02</leafValues></_>
        <_>
          <internalNodes>
            0 -1 290 2.0952451974153519e-02</internalNodes>
          <leafValues>
            7.7387310564517975e-02 -2.1540559828281403e-01</leafValues></_>
        <_>
          <internalNodes>
            0 -1 71 4.8915095627307892e-02</internalNodes>
          <leafValues>
            -7.2942085564136505e-02 2.3159204423427582e-01</leafValues></_>
        <_>
          <internalNodes>
            0 -1 320 6.5285295248031616e-02</internalNodes>
          <leafValues>
            -5.8089554309844971e-02 2.8660932183265686e-01</leafValues></_>
        <_>
          <internalNodes>
            0 -1 568 1.9932292401790619e-02</internalNodes>
          <leafValues>
            -2.0524919033050537e-01 8.6192041635513306e-02</leafValues></_>
        <_>
          <internalNodes>
            0 -1 210 1.9021326676011086e-02</internalNodes>
          <leafValues>
            1.1582998931407928e-01 -1.4611941576004028e-01</leafValues></_>
        <_>
          <internalNodes>
            0 -1 313 7.5344149954617023e-03</internalNodes>
          <leafValues>
            -3.1939718127250671e-01 4.6869199723005295e-02</leafValues></_>
        <_>
          <internalNodes>
            0 -1 326 2.0435193553566933e-02</internalNodes>
          <leafValues>
            1.0536715388298035e-01 -1.4721314609050751e-01</leafValues></_>
        <_>
          <internalNodes>
            0 -1 70 2.7679333463311195e-02</internalNodes>
          <leafValues>
            -1.0395189374685287e-01 1.4697067439556122e-01</leafValues></_>
        <_>
          <internalNodes>
            0 -1 558 1.2536119669675827e-02</internalNodes>
          <leafValues>
            -3.6603018641471863e-01 4.9666192382574081e-02</leafValues></_>
        <_>
          <internalNodes>
            0 -1 400 7.6562628149986267e-02</internalNodes>
          <leafValues>
            -5.3649358451366425e-02 3.0219468474388123e-01</leafValues></_>
        <_>
          <internalNodes>
            0 -1 550 5.1390051841735840e-02</internalNodes>
          <leafValues>
            3.1230024993419647e-02 -5.5843621492385864e-01</leafValues></_>
        <_>
          <internalNodes>
            0 -1 19 1.1308527318760753e-03</internalNodes>
          <leafValues>
            -4.2891430854797363e-01 2.9660349711775780e-02</leafValues></_>
        <_>
          <internalNodes>
            0 -1 206 2.5134138762950897e-02</internalNodes>
          <leafValues>
            7.7864766120910645e-02 -1.8421754240989685e-01</leafValues></_>
        <_>
          <internalNodes>
            0 -1 304 3.2688775099813938e-03</internalNodes>
          <leafValues>
            -5.0642699003219604e-01 2.9029903933405876e-02</leafValues></_>
        <_>
          <internalNodes>
            0 -1 273 1.0311068966984749e-02</internalNodes>
          <leafValues>
            1.7823895812034607e-01 -8.3436876535415649e-02</leafValues></_>
        <_>
          <internalNodes>
            0 -1 481 9.5270574092864990e-03</internalNodes>
          <leafValues>
            -3.9478549361228943e-01 3.8880687206983566e-02</leafValues></_>
        <_>
          <internalNodes>
            0 -1 436 2.1583927795290947e-02</internalNodes>
          <leafValues>
            7.8038774430751801e-02 -1.7147652804851532e-01</leafValues></_>
        <_>
          <internalNodes>
            0 -1 427 2.7956748381257057e-03</internalNodes>
          <leafValues>
            -7.1972757577896118e-01 1.5115510672330856e-02</leafValues></_>
        <_>
          <internalNodes>
            0 -1 519 3.9163976907730103e-02</internalNodes>
          <leafValues>
            -7.3225669562816620e-02 1.7759370803833008e-01</leafValues></_>
        <_>
          <internalNodes>
            0 -1 110 5.8367545716464520e-03</internalNodes>
          <leafValues>
            -3.1855139136314392e-01 3.7251941859722137e-02</leafValues></_>
        <_>
          <internalNodes>
            0 -1 51 8.5177076980471611e-03</internalNodes>
          <leafValues>
            2.0556247234344482e-01 -6.5011665225028992e-02</leafValues></_>
        <_>
          <internalNodes>
            0 -1 505 1.1559763923287392e-02</internalNodes>
          <leafValues>
            -3.1522694230079651e-01 3.8455009460449219e-02</leafValues></_>
        <_>
          <internalNodes>
            0 -1 340 3.2723225653171539e-02</internalNodes>
          <leafValues>
            4.2420849204063416e-02 -2.6211068034172058e-01</leafValues></_>
        <_>
          <internalNodes>
            0 -1 42 2.0099274814128876e-02</internalNodes>
          <leafValues>
            -1.2752419710159302e-01 9.7573287785053253e-02</leafValues></_>
        <_>
          <internalNodes>
            0 -1 534 1.9523531664162874e-03</internalNodes>
          <leafValues>
            -7.0638740062713623e-01 1.8255479633808136e-02</leafValues></_>
        <_>
          <internalNodes>
            0 -1 392 1.7052453011274338e-02</internalNodes>
          <leafValues>
            9.2995591461658478e-02 -1.2959526479244232e-01</leafValues></_>
        <_>
          <internalNodes>
            0 -1 298 9.7952387295663357e-04</internalNodes>
          <leafValues>
            -3.7168085575103760e-01 2.9881678521633148e-02</leafValues></_>
        <_>
          <internalNodes>
            0 -1 217 1.3960355520248413e-01</internalNodes>
          <leafValues>
            -2.2329604253172874e-02 5.3589475154876709e-01</leafValues></_>
        <_>
          <internalNodes>
            0 -1 23 4.1099973022937775e-03</internalNodes>
          <leafValues>
            -4.0320199728012085e-01 3.3842436969280243e-02</leafValues></_>
        <_>
          <internalNodes>
            0 -1 248 5.8194752782583237e-03</internalNodes>
          <leafValues>
            -3.2458224892616272e-01 3.4040518105030060e-02</leafValues></_>
        <_>
          <internalNodes>
            0 -1 90 1.4727514237165451e-02</internalNodes>
          <leafValues>
            1.2246907502412796e-01 -9.6118979156017303e-02</leafValues></_>
        <_>
          <internalNodes>
            0 -1 383 7.3893800377845764e-02</internalNodes>
          <leafValues>
            2.9620125889778137e-02 -4.3662026524543762e-01</leafValues></_>
        <_>
          <internalNodes>
            0 -1 318 4.7781765460968018e-02</internalNodes>
          <leafValues>
            2.3312719538807869e-02 -4.3601900339126587e-01</leafValues></_>
        <_>
          <internalNodes>
            0 -1 551 5.2797459065914154e-02</internalNodes>
          <leafValues>
            1.3383110053837299e-02 -7.2134125232696533e-01</leafValues></_>
        <_>
          <internalNodes>
            0 -1 489 2.3432012647390366e-02</internalNodes>
          <leafValues>
            -9.6316374838352203e-02 1.1069238930940628e-01</leafValues></_>
        <_>
          <internalNodes>
            0 -1 35 1.4674335718154907e-01</internalNodes>
          <leafValues>
            -1.9896253943443298e-02 5.5716013908386230e-01</leafValues></_>
        <_>
          <internalNodes>
            0 -1 384 6.2448710203170776e-02</internalNodes>
          <leafValues>
            1.6433540731668472e-02 -7.3278689384460449e-01</leafValues></_>
        <_>
          <internalNodes>
            0 -1 13 9.9671375937759876e-04</internalNodes>
          <leafValues>
            -3.8811066746711731e-01 2.4443058297038078e-02</leafValues></_>
        <_>
          <internalNodes>
            0 -1 34 1.8338596448302269e-02</internalNodes>
          <leafValues>
            8.2998186349868774e-02 -1.5233717858791351e-01</leafValues></_>
        <_>
          <internalNodes>
            0 -1 375 1.3314628042280674e-02</internalNodes>
          <leafValues>
            -1.7741195857524872e-01 6.3178896903991699e-02</leafValues></_>
        <_>
          <internalNodes>
            0 -1 294 1.1991355568170547e-02</internalNodes>
          <leafValues>
            1.9300098717212677e-01 -7.6119028031826019e-02</leafValues></_>
        <_>
          <internalNodes>
            0 -1 368 5.2805375307798386e-02</internalNodes>
          <leafValues>
            -4.3179050087928772e-02 2.9595795273780823e-01</leafValues></_>
        <_>
          <internalNodes>
            0 -1 568 6.6744908690452576e-03</internalNodes>
          <leafValues>
            -7.0137053728103638e-01 1.7870984971523285e-02</leafValues></_>
        <_>
          <internalNodes>
            0 -1 426 1.0826157778501511e-01</internalNodes>
          <leafValues>
            1.1740478686988354e-02 -6.6204339265823364e-01</leafValues></_>
        <_>
          <internalNodes>
            0 -1 80 1.4273710548877716e-02</internalNodes>
          <leafValues>
            1.0409597307443619e-01 -1.0673560202121735e-01</leafValues></_>
        <_>
          <internalNodes>
            0 -1 559 2.0388295873999596e-02</internalNodes>
          <leafValues>
            -1.4242723584175110e-01 7.3143750429153442e-02</leafValues></_>
        <_>
          <internalNodes>
            0 -1 408 4.9995250999927521e-02</internalNodes>
          <leafValues>
            3.6023035645484924e-02 -3.1069853901863098e-01</leafValues></_>
        <_>
          <internalNodes>
            0 -1 1 3.7777096033096313e-02</internalNodes>
          <leafValues>
            3.5055749118328094e-02 -3.0677464604377747e-01</leafValues></_>
        <_>
          <internalNodes>
            0 -1 509 7.4443072080612183e-02</internalNodes>
          <leafValues>
            1.8083410337567329e-02 -5.2393233776092529e-01</leafValues></_>
        <_>
          <internalNodes>
            0 -1 284 2.2821877151727676e-02</internalNodes>
          <leafValues>
            -1.2645429372787476e-01 9.0499974787235260e-02</leafValues></_>
        <_>
          <internalNodes>
            0 -1 347 1.7309822142124176e-02</internalNodes>
          <leafValues>
            1.2808775901794434e-01 -8.8703252375125885e-02</leafValues></_>
        <_>
          <internalNodes>
            0 -1 455 1.4671307802200317e-01</internalNodes>
          <leafValues>
            -2.0847324281930923e-02 5.0139617919921875e-01</leafValues></_>
        <_>
          <internalNodes>
            0 -1 410 2.6587858796119690e-02</internalNodes>
          <leafValues>
            5.5553641170263290e-02 -1.7691461741924286e-01</leafValues></_>
        <_>
          <internalNodes>
            0 -1 279 3.1408622860908508e-02</internalNodes>
          <leafValues>
            7.1096777915954590e-02 -1.4026421308517456e-01</leafValues></_>
        <_>
          <internalNodes>
            0 -1 430 6.0492064803838730e-02</internalNodes>
          <leafValues>
            2.0164001733064651e-02 -4.9861344695091248e-01</leafValues></_>
        <_>
          <internalNodes>
            0 -1 127 1.5882947482168674e-03</internalNodes>
          <leafValues>
            -7.4449568986892700e-01 1.1552185751497746e-02</leafValues></_>
        <_>
          <internalNodes>
            0 -1 367 1.4932384714484215e-02</internalNodes>
          <leafValues>
            9.3346104025840759e-02 -9.9884860217571259e-02</leafValues></_>
        <_>
          <internalNodes>
            0 -1 134 6.5295351669192314e-04</internalNodes>
          <leafValues>
            -5.2712333202362061e-01 1.9148267805576324e-02</leafValues></_>
        <_>
          <internalNodes>
            0 -1 542 4.4049839489161968e-03</internalNodes>
          <leafValues>
            -4.4826486706733704e-01 2.0317463204264641e-02</leafValues></_>
        <_>
          <internalNodes>
            0 -1 92 6.0668878257274628e-02</internalNodes>
          <leafValues>
            -3.9687369018793106e-02 2.7577561140060425e-01</leafValues></_>
        <_>
          <internalNodes>
            0 -1 231 1.7916172742843628e-02</internalNodes>
          <leafValues>
            1.4868791401386261e-01 -7.6726041734218597e-02</leafValues></_>
        <_>
          <internalNodes>
            0 -1 230 6.0673791915178299e-02</internalNodes>
          <leafValues>
            -3.9476428180932999e-02 2.9079145193099976e-01</leafValues></_>
        <_>
          <internalNodes>
            0 -1 96 2.7602378278970718e-02</internalNodes>
          <leafValues>
            -8.0675162374973297e-02 1.3768866658210754e-01</leafValues></_>
        <_>
          <internalNodes>
            0 -1 132 5.3555831313133240e-02</internalNodes>
          <leafValues>
            -4.5793551951646805e-02 2.2362291812896729e-01</leafValues></_>
        <_>
          <internalNodes>
            0 -1 413 6.2338765710592270e-03</internalNodes>
          <leafValues>
            -4.6137702465057373e-01 2.2241014987230301e-02</leafValues></_>
        <_>
          <internalNodes>
            0 -1 259 4.8424921929836273e-02</internalNodes>
          <leafValues>
            2.2067395970225334e-02 -3.9575919508934021e-01</leafValues></_>
        <_>
          <internalNodes>
            0 -1 385 3.3365361392498016e-02</internalNodes>
          <leafValues>
            4.3088663369417191e-02 -2.0624072849750519e-01</leafValues></_>
        <_>
          <internalNodes>
            0 -1 26 3.2260343432426453e-02</internalNodes>
          <leafValues>
            5.5754344910383224e-02 -1.6678610444068909e-01</leafValues></_>
        <_>
          <internalNodes>
            0 -1 166 1.2136994628235698e-03</internalNodes>
          <leafValues>
            -8.2637619972229004e-01 1.0502856224775314e-02</leafValues></_>
        <_>
          <internalNodes>
            0 -1 419 2.2032119333744049e-02</internalNodes>
          <leafValues>
            -1.0987167060375214e-01 8.2396514713764191e-02</leafValues></_>
        <_>
          <internalNodes>
            0 -1 414 4.2161066085100174e-03</internalNodes>
          <leafValues>
            -4.6174860000610352e-01 1.9656708464026451e-02</leafValues></_>
        <_>
          <internalNodes>
            0 -1 157 9.0222507715225220e-03</internalNodes>
          <leafValues>
            1.7043510079383850e-01 -6.7323312163352966e-02</leafValues></_>
        <_>
          <internalNodes>
            0 -1 115 2.7453385293483734e-02</internalNodes>
          <leafValues>
            -7.4205346405506134e-02 1.3357634842395782e-01</leafValues></_>
        <_>
          <internalNodes>
            0 -1 84 5.9883065521717072e-02</internalNodes>
          <leafValues>
            -3.0123094096779823e-02 3.4737753868103027e-01</leafValues></_>
        <_>
          <internalNodes>
            0 -1 152 2.4111468344926834e-02</internalNodes>
          <leafValues>
            6.0484010726213455e-02 -1.7280104756355286e-01</leafValues></_>
        <_>
          <internalNodes>
            0 -1 547 5.8237547054886818e-03</internalNodes>
          <leafValues>
            4.2209148406982422e-01 -2.2986106574535370e-02</leafValues></_>
        <_>
          <internalNodes>
            0 -1 554 4.4516690075397491e-02</internalNodes>
          <leafValues>
            2.9950154945254326e-02 -3.4982058405876160e-01</leafValues></_>
        <_>
          <internalNodes>
            0 -1 29 3.8373891729861498e-03</internalNodes>
          <leafValues>
            -3.3441749215126038e-01 2.7171440422534943e-02</leafValues></_>
        <_>
          <internalNodes>
            0 -1 81 4.1713740676641464e-02</internalNodes>
          <leafValues>
            3.0931346118450165e-02 -2.6669937372207642e-01</leafValues></_>
        <_>
          <internalNodes>
            0 -1 133 8.5431605111807585e-04</internalNodes>
          <leafValues>
            -5.4001611471176147e-01 1.4820245094597340e-02</leafValues></_>
        <_>
          <internalNodes>
            0 -1 41 7.8747756779193878e-03</internalNodes>
          <leafValues>
            1.9783295691013336e-01 -4.9495376646518707e-02</leafValues></_>
        <_>
          <internalNodes>
            0 -1 354 2.4901363067328930e-03</internalNodes>
          <leafValues>
            -3.8105204701423645e-01 2.3004442453384399e-02</leafValues></_>
        <_>
          <internalNodes>
            0 -1 186 1.3858440518379211e-01</internalNodes>
          <leafValues>
            -1.4957491308450699e-02 6.3714164495468140e-01</leafValues></_>
        <_>
          <internalNodes>
            0 -1 226 2.9253633692860603e-03</internalNodes>
          <leafValues>
            -4.4703829288482666e-01 2.0048053935170174e-02</leafValues></_>
        <_>
          <internalNodes>
            0 -1 254 4.0703587234020233e-02</internalNodes>
          <leafValues>
            -5.3516693413257599e-02 1.6185194253921509e-01</leafValues></_>
        <_>
          <internalNodes>
            0 -1 238 4.5384228229522705e-02</internalNodes>
          <leafValues>
            -3.9212860167026520e-02 2.2288694977760315e-01</leafValues></_>
        <_>
          <internalNodes>
            0 -1 558 1.9728330895304680e-02</internalNodes>
          <leafValues>
            -1.4720165729522705e-01 5.9298556298017502e-02</leafValues></_>
        <_>
          <internalNodes>
            0 -1 147 1.2148391455411911e-02</internalNodes>
          <leafValues>
            1.5823683142662048e-01 -6.2550827860832214e-02</leafValues></_>
        <_>
          <internalNodes>
            0 -1 77 6.0178791172802448e-03</internalNodes>
          <leafValues>
            -2.8690111637115479e-01 3.1203035265207291e-02</leafValues></_>
        <_>
          <internalNodes>
            0 -1 31 6.1370693147182465e-03</internalNodes>
          <leafValues>
            1.8357442319393158e-01 -5.2133306860923767e-02</leafValues></_>
        <_>
          <internalNodes>
            0 -1 297 3.1499378383159637e-02</internalNodes>
          <leafValues>
            -5.2638523280620575e-02 1.8253804743289948e-01</leafValues></_>
        <_>
          <internalNodes>
            0 -1 487 3.5156752914190292e-02</internalNodes>
          <leafValues>
            4.2140141129493713e-02 -2.5460600852966309e-01</leafValues></_>
        <_>
          <internalNodes>
            0 -1 17 2.8358569368720055e-02</internalNodes>
          <leafValues>
            9.2164531350135803e-02 -9.7342565655708313e-02</leafValues></_>
        <_>
          <internalNodes>
            0 -1 433 1.9840318709611893e-02</internalNodes>
          <leafValues>
            -1.8271832168102264e-01 5.2410263568162918e-02</leafValues></_>
        <_>
          <internalNodes>
            0 -1 329 2.0451968535780907e-02</internalNodes>
          <leafValues>
            1.2709045410156250e-01 -8.0990388989448547e-02</leafValues></_>
        <_>
          <internalNodes>
            0 -1 161 8.0214731395244598e-02</internalNodes>
          <leafValues>
            -3.2078981399536133e-02 2.9495432972908020e-01</leafValues></_>
        <_>
          <internalNodes>
            0 -1 266 3.2907616696320474e-04</internalNodes>
          <leafValues>
            -5.9437823295593262e-01 1.5859777107834816e-02</leafValues></_>
        <_>
          <internalNodes>
            0 -1 379 6.2818206846714020e-02</internalNodes>
          <leafValues>
            1.1389433406293392e-02 -6.6103559732437134e-01</leafValues></_>
        <_>
          <internalNodes>
            0 -1 20 1.4711113180965185e-04</internalNodes>
          <leafValues>
            6.0749906301498413e-01 -1.6601720824837685e-02</leafValues></_>
        <_>
          <internalNodes>
            0 -1 5 3.6689923144876957e-03</internalNodes>
          <leafValues>
            -1.7668113112449646e-01 4.9086559563875198e-02</leafValues></_>
        <_>
          <internalNodes>
            0 -1 200 6.1452660709619522e-02</internalNodes>
          <leafValues>
            -2.9508519917726517e-02 2.7730715274810791e-01</leafValues></_>
        <_>
          <internalNodes>
            0 -1 268 7.8784346580505371e-02</internalNodes>
          <leafValues>
            -2.5349680334329605e-02 3.3968183398246765e-01</leafValues></_>
        <_>
          <internalNodes>
            0 -1 570 1.6861341893672943e-02</internalNodes>
          <leafValues>
            -2.0435577630996704e-01 4.8210561275482178e-02</leafValues></_>
        <_>
          <internalNodes>
            0 -1 356 1.6745940956752747e-04</internalNodes>
          <leafValues>
            6.6203308105468750e-01 -1.3657003641128540e-02</leafValues></_>
        <_>
          <internalNodes>
            0 -1 353 3.2761156558990479e-02</internalNodes>
          <leafValues>
            5.0662413239479065e-02 -1.6209167242050171e-01</leafValues></_>
        <_>
          <internalNodes>
            0 -1 258 7.8837454319000244e-02</internalNodes>
          <leafValues>
            1.1764597147703171e-02 -6.3115537166595459e-01</leafValues></_>
        <_>
          <internalNodes>
            0 -1 124 2.1052304655313492e-02</internalNodes>
          <leafValues>
            9.0679258108139038e-02 -9.2435084283351898e-02</leafValues></_>
        <_>
          <internalNodes>
            0 -1 557 2.1167695522308350e-02</internalNodes>
          <leafValues>
            -1.4360113441944122e-01 6.6559039056301117e-02</leafValues></_>
        <_>
          <internalNodes>
            0 -1 503 7.6213881373405457e-02</internalNodes>
          <leafValues>
            1.5091975219547749e-02 -5.9852075576782227e-01</leafValues></_>
        <_>
          <internalNodes>
            0 -1 136 1.7771862447261810e-02</internalNodes>
          <leafValues>
            1.0715590417385101e-01 -8.2967869937419891e-02</leafValues></_>
        <_>
          <internalNodes>
            0 -1 33 1.4351138845086098e-02</internalNodes>
          <leafValues>
            1.3059729337692261e-01 -6.6729031503200531e-02</leafValues></_>
        <_>
          <internalNodes>
            0 -1 499 8.3069965243339539e-02</internalNodes>
          <leafValues>
            1.7759049311280251e-02 -5.3395193815231323e-01</leafValues></_>
        <_>
          <internalNodes>
            0 -1 353 5.0532480236142874e-04</internalNodes>
          <leafValues>
            -4.5780587196350098e-01 1.8248086795210838e-02</leafValues></_>
        <_>
          <internalNodes>
            0 -1 93 6.0670815408229828e-02</internalNodes>
          <leafValues>
            -3.4309085458517075e-02 2.5108623504638672e-01</leafValues></_>
        <_>
          <internalNodes>
            0 -1 128 6.3380557112395763e-03</internalNodes>
          <leafValues>
            -2.8254705667495728e-01 3.4279868006706238e-02</leafValues></_>
        <_>
          <internalNodes>
            0 -1 287 1.8040087074041367e-02</internalNodes>
          <leafValues>
            7.5255058705806732e-02 -1.0716965049505234e-01</leafValues></_>
        <_>
          <internalNodes>
            0 -1 287 1.9957667682319880e-03</internalNodes>
          <leafValues>
            -3.4794509410858154e-01 2.9843773692846298e-02</leafValues></_>
        <_>
          <internalNodes>
            0 -1 61 5.4767690598964691e-02</internalNodes>
          <leafValues>
            -3.1782295554876328e-02 2.8066778182983398e-01</leafValues></_>
        <_>
          <internalNodes>
            0 -1 202 5.9353318065404892e-02</internalNodes>
          <leafValues>
            -3.9917517453432083e-02 1.9025993347167969e-01</leafValues></_>
        <_>
          <internalNodes>
            0 -1 235 1.4468091540038586e-03</internalNodes>
          <leafValues>
            -5.7639521360397339e-01 1.4741629362106323e-02</leafValues></_>
        <_>
          <internalNodes>
            0 -1 230 1.5265414118766785e-01</internalNodes>
          <leafValues>
            -1.2100355699658394e-02 7.7217370271682739e-01</leafValues></_>
        <_>
          <internalNodes>
            0 -1 404 6.3164353370666504e-02</internalNodes>
          <leafValues>
            2.3365614935755730e-02 -4.4122502207756042e-01</leafValues></_>
        <_>
          <internalNodes>
            0 -1 82 1.4017902314662933e-02</internalNodes>
          <leafValues>
            1.0932040959596634e-01 -7.7862598001956940e-02</leafValues></_>
        <_>
          <internalNodes>
            0 -1 261 7.3923856019973755e-02</internalNodes>
          <leafValues>
            1.7112245783209801e-02 -4.2902112007141113e-01</leafValues></_>
        <_>
          <internalNodes>
            0 -1 442 4.9648683518171310e-02</internalNodes>
          <leafValues>
            3.8422856479883194e-02 -2.2904320061206818e-01</leafValues></_>
        <_>
          <internalNodes>
            0 -1 368 1.2233116663992405e-02</internalNodes>
          <leafValues>
            1.2307809293270111e-01 -6.9484755396842957e-02</leafValues></_>
        <_>
          <internalNodes>
            0 -1 536 2.8552601579576731e-03</internalNodes>
          <leafValues>
            -4.9204564094543457e-01 1.7148448154330254e-02</leafValues></_>
        <_>
          <internalNodes>
            0 -1 55 2.4901018477976322e-03</internalNodes>
          <leafValues>
            -4.0281790494918823e-01 1.8839752301573753e-02</leafValues></_>
        <_>
          <internalNodes>
            0 -1 243 1.9771497696638107e-02</internalNodes>
          <leafValues>
            6.7696861922740936e-02 -1.2827518582344055e-01</leafValues></_>
        <_>
          <internalNodes>
            0 -1 552 1.6184687614440918e-02</internalNodes>
          <leafValues>
            -1.4519850909709930e-01 5.4103977978229523e-02</leafValues></_>
        <_>
          <internalNodes>
            0 -1 310 2.2379033267498016e-02</internalNodes>
          <leafValues>
            6.8335331976413727e-02 -1.2630546092987061e-01</leafValues></_></weakClassifiers></_>
    <!-- stage 5 -->
    <_>
      <maxWeakCount>150</maxWeakCount>
      <stageThreshold>-1.2387825250625610e+00</stageThreshold>
      <weakClassifiers>
        <_>
          <internalNodes>
            0 -1 314 4.7323908656835556e-02</internalNodes>
          <leafValues>
            -1.5062949061393738e-01 4.3170103430747986e-01</leafValues></_>
        <_>
          <internalNodes>
            0 -1 355 5.7556591928005219e-02</internalNodes>
          <leafValues>
            -1.2206057459115982e-01 4.5569187402725220e-01</leafValues></_>
        <_>
          <internalNodes>
            0 -1 78 1.4144746586680412e-02</internalNodes>
          <leafValues>
            2.2498174011707306e-01 -2.0974329113960266e-01</leafValues></_>
        <_>
          <internalNodes>
            0 -1 103 2.4776915088295937e-02</internalNodes>
          <leafValues>
            -2.1616449952125549e-01 1.5791420638561249e-01</leafValues></_>
        <_>
          <internalNodes>
            0 -1 511 3.4005053341388702e-02</internalNodes>
          <leafValues>
            -1.3543514907360077e-01 2.2921186685562134e-01</leafValues></_>
        <_>
          <internalNodes>
            0 -1 306 5.7070624083280563e-02</internalNodes>
          <leafValues>
            -1.0022490471601486e-01 3.1039461493492126e-01</leafValues></_>
        <_>
          <internalNodes>
            0 -1 283 3.8699209690093994e-02</internalNodes>
          <leafValues>
            -1.2771622836589813e-01 2.2007429599761963e-01</leafValues></_>
        <_>
          <internalNodes>
            0 -1 16 2.9158435761928558e-02</internalNodes>
          <leafValues>
            -1.6245749592781067e-01 1.8349805474281311e-01</leafValues></_>
        <_>
          <internalNodes>
            0 -1 150 2.2815914824604988e-02</internalNodes>
          <leafValues>
            7.3103941977024078e-02 -2.6839745044708252e-01</leafValues></_>
        <_>
          <internalNodes>
            0 -1 233 2.6239547878503799e-02</internalNodes>
          <leafValues>
            -1.5546528995037079e-01 1.4727252721786499e-01</leafValues></_>
        <_>
          <internalNodes>
            0 -1 513 9.0768858790397644e-03</internalNodes>
          <leafValues>
            -3.7627649307250977e-01 2.9593905434012413e-02</leafValues></_>
        <_>
          <internalNodes>
            0 -1 529 8.1986375153064728e-03</internalNodes>
          <leafValues>
            -4.1828051209449768e-01 5.9313748031854630e-02</leafValues></_>
        <_>
          <internalNodes>
            0 -1 204 1.8688222393393517e-02</internalNodes>
          <leafValues>
            1.3371957838535309e-01 -1.7777320742607117e-01</leafValues></_>
        <_>
          <internalNodes>
            0 -1 375 1.4105899259448051e-02</internalNodes>
          <leafValues>
            -2.3024161159992218e-01 8.7327964603900909e-02</leafValues></_>
        <_>
          <internalNodes>
            0 -1 200 2.2030785679817200e-02</internalNodes>
          <leafValues>
            -1.4587131142616272e-01 1.1780866235494614e-01</leafValues></_>
        <_>
          <internalNodes>
            0 -1 369 1.9833507016301155e-02</internalNodes>
          <leafValues>
            1.4772480726242065e-01 -1.1185817420482635e-01</leafValues></_>
        <_>
          <internalNodes>
            0 -1 570 9.0896133333444595e-03</internalNodes>
          <leafValues>
            -5.7500547170639038e-01 2.6745701208710670e-02</leafValues></_>
        <_>
          <internalNodes>
            0 -1 47 1.1415631510317326e-02</internalNodes>
          <leafValues>
            1.9019663333892822e-01 -9.4537168741226196e-02</leafValues></_>
        <_>
          <internalNodes>
            0 -1 504 1.5369029715657234e-02</internalNodes>
          <leafValues>
            -2.2313281893730164e-01 8.1321634352207184e-02</leafValues></_>
        <_>
          <internalNodes>
            0 -1 141 8.0987662076950073e-02</internalNodes>
          <leafValues>
            -4.5892428606748581e-02 3.3564153313636780e-01</leafValues></_>
        <_>
          <internalNodes>
            0 -1 351 1.9272418692708015e-02</internalNodes>
          <leafValues>
            1.0318600386381149e-01 -1.4836283028125763e-01</leafValues></_>
        <_>
          <internalNodes>
            0 -1 422 5.1731606945395470e-03</internalNodes>
          <leafValues>
            -5.2186948060989380e-01 2.6124769821763039e-02</leafValues></_>
        <_>
          <internalNodes>
            0 -1 43 3.0854372307658195e-02</internalNodes>
          <leafValues>
            4.6698611229658127e-02 -2.8169450163841248e-01</leafValues></_>
        <_>
          <internalNodes>
            0 -1 507 1.2375500053167343e-02</internalNodes>
          <leafValues>
            -2.0030306279659271e-01 6.6784471273422241e-02</leafValues></_>
        <_>
          <internalNodes>
            0 -1 475 9.3617960810661316e-03</internalNodes>
          <leafValues>
            -3.8654321432113647e-01 3.7125580012798309e-02</leafValues></_>
        <_>
          <internalNodes>
            0 -1 375 6.2178142368793488e-02</internalNodes>
          <leafValues>
            -5.6577369570732117e-02 2.6087343692779541e-01</leafValues></_>
        <_>
          <internalNodes>
            0 -1 105 1.5352195128798485e-02</internalNodes>
          <leafValues>
            -1.6280573606491089e-01 7.5487889349460602e-02</leafValues></_>
        <_>
          <internalNodes>
            0 -1 451 1.5042671933770180e-02</internalNodes>
          <leafValues>
            1.0922212898731232e-01 -1.1917832493782043e-01</leafValues></_>
        <_>
          <internalNodes>
            0 -1 407 8.8073443621397018e-03</internalNodes>
          <leafValues>
            -3.4137409925460815e-01 4.4072534888982773e-02</leafValues></_>
        <_>
          <internalNodes>
            0 -1 208 1.2280294671654701e-02</internalNodes>
          <leafValues>
            1.4185905456542969e-01 -9.4264999032020569e-02</leafValues></_>
        <_>
          <internalNodes>
            0 -1 232 4.3309461325407028e-03</internalNodes>
          <leafValues>
            -3.5545557737350464e-01 3.6715533584356308e-02</leafValues></_>
        <_>
          <internalNodes>
            0 -1 99 2.6608755812048912e-02</internalNodes>
          <leafValues>
            4.8326391726732254e-02 -2.3261548578739166e-01</leafValues></_>
        <_>
          <internalNodes>
            0 -1 470 4.3993450701236725e-02</internalNodes>
          <leafValues>
            3.2941747456789017e-02 -3.6870440840721130e-01</leafValues></_>
        <_>
          <internalNodes>
            0 -1 449 6.2469035387039185e-02</internalNodes>
          <leafValues>
            1.6654262319207191e-02 -6.6779243946075439e-01</leafValues></_>
        <_>
          <internalNodes>
            0 -1 230 1.2675685808062553e-02</internalNodes>
          <leafValues>
            1.8994311988353729e-01 -7.0801958441734314e-02</leafValues></_>
        <_>
          <internalNodes>
            0 -1 519 1.6579043120145798e-02</internalNodes>
          <leafValues>
            -1.7128023505210876e-01 6.5118417143821716e-02</leafValues></_>
        <_>
          <internalNodes>
            0 -1 355 6.0450777411460876e-02</internalNodes>
          <leafValues>
            4.4311307370662689e-02 -2.6403567194938660e-01</leafValues></_>
        <_>
          <internalNodes>
            0 -1 159 2.4360224604606628e-02</internalNodes>
          <leafValues>
            1.1339741945266724e-01 -1.0365422070026398e-01</leafValues></_>
        <_>
          <internalNodes>
            0 -1 467 2.7226615697145462e-02</internalNodes>
          <leafValues>
            -9.3701682984828949e-02 1.2878330051898956e-01</leafValues></_>
        <_>
          <internalNodes>
            0 -1 529 5.9547174721956253e-02</internalNodes>
          <leafValues>
            -4.0365558117628098e-02 2.6882663369178772e-01</leafValues></_>
        <_>
          <internalNodes>
            0 -1 504 5.3331553936004639e-03</internalNodes>
          <leafValues>
            -5.1070481538772583e-01 2.2412151098251343e-02</leafValues></_>
        <_>
          <internalNodes>
            0 -1 288 1.3464014977216721e-02</internalNodes>
          <leafValues>
            1.3786531984806061e-01 -8.8076919317245483e-02</leafValues></_>
        <_>
          <internalNodes>
            0 -1 465 5.4546765983104706e-02</internalNodes>
          <leafValues>
            2.5470569729804993e-02 -4.7912403941154480e-01</leafValues></_>
        <_>
          <internalNodes>
            0 -1 25 3.0363905243575573e-03</internalNodes>
          <leafValues>
            -2.9066118597984314e-01 3.5684347152709961e-02</leafValues></_>
        <_>
          <internalNodes>
            0 -1 83 4.7137334942817688e-02</internalNodes>
          <leafValues>
            -3.8090690970420837e-02 2.9504472017288208e-01</leafValues></_>
        <_>
          <internalNodes>
            0 -1 6 5.4945535957813263e-02</internalNodes>
          <leafValues>
            -5.1309727132320404e-02 1.9808793067932129e-01</leafValues></_>
        <_>
          <internalNodes>
            0 -1 28 3.5247121006250381e-02</internalNodes>
          <leafValues>
            7.9243190586566925e-02 -1.4724738895893097e-01</leafValues></_>
        <_>
          <internalNodes>
            0 -1 35 5.6450746953487396e-02</internalNodes>
          <leafValues>
            -4.7759648412466049e-02 2.0891459286212921e-01</leafValues></_>
        <_>
          <internalNodes>
            0 -1 117 3.3027201425284147e-04</internalNodes>
          <leafValues>
            -5.0831753015518188e-01 2.2351372987031937e-02</leafValues></_>
        <_>
          <internalNodes>
            0 -1 321 4.7245956957340240e-02</internalNodes>
          <leafValues>
            -5.3979597985744476e-02 1.9113576412200928e-01</leafValues></_>
        <_>
          <internalNodes>
            0 -1 366 4.9103144556283951e-04</internalNodes>
          <leafValues>
            -4.0036153793334961e-01 2.3363219574093819e-02</leafValues></_>
        <_>
          <internalNodes>
            0 -1 234 1.9997684285044670e-03</internalNodes>
          <leafValues>
            -4.0539839863777161e-01 2.1805223077535629e-02</leafValues></_>
        <_>
          <internalNodes>
            0 -1 308 4.4822461903095245e-02</internalNodes>
          <leafValues>
            -5.5789858102798462e-02 1.8100821971893311e-01</leafValues></_>
        <_>
          <internalNodes>
            0 -1 441 1.9934080541133881e-02</internalNodes>
          <leafValues>
            7.8211523592472076e-02 -1.2865954637527466e-01</leafValues></_>
        <_>
          <internalNodes>
            0 -1 511 1.2737908400595188e-02</internalNodes>
          <leafValues>
            -2.3632431030273438e-01 4.4978223741054535e-02</leafValues></_>
        <_>
          <internalNodes>
            0 -1 65 3.6817573010921478e-02</internalNodes>
          <leafValues>
            -7.5415171682834625e-02 1.2976494431495667e-01</leafValues></_>
        <_>
          <internalNodes>
            0 -1 120 2.2745816037058830e-02</internalNodes>
          <leafValues>
            1.0337299853563309e-01 -1.1015920341014862e-01</leafValues></_>
        <_>
          <internalNodes>
            0 -1 188 6.1327870935201645e-02</internalNodes>
          <leafValues>
            3.4173842519521713e-02 -3.1381681561470032e-01</leafValues></_>
        <_>
          <internalNodes>
            0 -1 317 2.1599274128675461e-02</internalNodes>
          <leafValues>
            1.0390698909759521e-01 -9.6657700836658478e-02</leafValues></_>
        <_>
          <internalNodes>
            0 -1 567 1.2984745204448700e-02</internalNodes>
          <leafValues>
            -2.6291441917419434e-01 4.1813712567090988e-02</leafValues></_>
        <_>
          <internalNodes>
            0 -1 419 3.1720146536827087e-02</internalNodes>
          <leafValues>
            -7.4987351894378662e-02 1.3817213475704193e-01</leafValues></_>
        <_>
          <internalNodes>
            0 -1 92 1.0217025876045227e-01</internalNodes>
          <leafValues>
            -1.7645405605435371e-02 5.7865077257156372e-01</leafValues></_>
        <_>
          <internalNodes>
            0 -1 483 2.1029504016041756e-02</internalNodes>
          <leafValues>
            -1.0618025064468384e-01 1.0027781128883362e-01</leafValues></_>
        <_>
          <internalNodes>
            0 -1 2 5.7999372482299805e-02</internalNodes>
          <leafValues>
            1.5954799950122833e-02 -5.5363082885742188e-01</leafValues></_>
        <_>
          <internalNodes>
            0 -1 106 1.8321963027119637e-02</internalNodes>
          <leafValues>
            9.4000920653343201e-02 -1.0026592016220093e-01</leafValues></_>
        <_>
          <internalNodes>
            0 -1 292 2.6898736134171486e-02</internalNodes>
          <leafValues>
            6.1579786241054535e-02 -1.6699664294719696e-01</leafValues></_>
        <_>
          <internalNodes>
            0 -1 263 1.3185462448745966e-03</internalNodes>
          <leafValues>
            -8.0526816844940186e-01 1.1555205099284649e-02</leafValues></_>
        <_>
          <internalNodes>
            0 -1 279 1.7766565084457397e-02</internalNodes>
          <leafValues>
            1.1338134855031967e-01 -8.1077858805656433e-02</leafValues></_>
        <_>
          <internalNodes>
            0 -1 301 6.8593665957450867e-02</internalNodes>
          <leafValues>
            1.2832826934754848e-02 -8.4465694427490234e-01</leafValues></_>
        <_>
          <internalNodes>
            0 -1 211 7.7814005315303802e-02</internalNodes>
          <leafValues>
            -2.5752987712621689e-02 4.0580382943153381e-01</leafValues></_>
        <_>
          <internalNodes>
            0 -1 529 1.4170997776091099e-02</internalNodes>
          <leafValues>
            -1.9225500524044037e-01 5.2240859717130661e-02</leafValues></_>
        <_>
          <internalNodes>
            0 -1 57 1.7513392958790064e-03</internalNodes>
          <leafValues>
            -3.2597357034683228e-01 2.6661563664674759e-02</leafValues></_>
        <_>
          <internalNodes>
            0 -1 32 2.1521452814340591e-02</internalNodes>
          <leafValues>
            6.4975537359714508e-02 -1.3794326782226562e-01</leafValues></_>
        <_>
          <internalNodes>
            0 -1 555 6.3197896815836430e-03</internalNodes>
          <leafValues>
            -4.0591692924499512e-01 2.1648332476615906e-02</leafValues></_>
        <_>
          <internalNodes>
            0 -1 564 3.6348826251924038e-03</internalNodes>
          <leafValues>
            -9.0326762199401855e-01 8.3774495869874954e-03</leafValues></_>
        <_>
          <internalNodes>
            0 -1 310 4.8788551241159439e-02</internalNodes>
          <leafValues>
            2.5532023981213570e-02 -3.2847502827644348e-01</leafValues></_>
        <_>
          <internalNodes>
            0 -1 156 1.0538339614868164e-02</internalNodes>
          <leafValues>
            1.3682329654693604e-01 -6.5323933959007263e-02</leafValues></_>
        <_>
          <internalNodes>
            0 -1 187 3.6325521767139435e-02</internalNodes>
          <leafValues>
            -5.4636280983686447e-02 1.6994559764862061e-01</leafValues></_>
        <_>
          <internalNodes>
            0 -1 88 6.4399078488349915e-02</internalNodes>
          <leafValues>
            1.7808558419346809e-02 -5.0692141056060791e-01</leafValues></_>
        <_>
          <internalNodes>
            0 -1 205 1.8583223223686218e-02</internalNodes>
          <leafValues>
            7.5394310057163239e-02 -1.1294477432966232e-01</leafValues></_>
        <_>
          <internalNodes>
            0 -1 277 5.3553566336631775e-02</internalNodes>
          <leafValues>
            -4.2074009776115417e-02 2.1656006574630737e-01</leafValues></_>
        <_>
          <internalNodes>
            0 -1 416 1.6707334667444229e-02</internalNodes>
          <leafValues>
            -1.6648289561271667e-01 5.8273777365684509e-02</leafValues></_>
        <_>
          <internalNodes>
            0 -1 546 3.3762152306735516e-03</internalNodes>
          <leafValues>
            6.8233168125152588e-01 -1.8697513267397881e-02</leafValues></_>
        <_>
          <internalNodes>
            0 -1 403 2.1723324898630381e-03</internalNodes>
          <leafValues>
            -8.7122994661331177e-01 1.4658021740615368e-02</leafValues></_>
        <_>
          <internalNodes>
            0 -1 18 4.7857109457254410e-02</internalNodes>
          <leafValues>
            -6.8644799292087555e-02 1.3738095760345459e-01</leafValues></_>
        <_>
          <internalNodes>
            0 -1 55 2.8255695942789316e-03</internalNodes>
          <leafValues>
            -3.7654814124107361e-01 2.5342620909214020e-02</leafValues></_>
        <_>
          <internalNodes>
            0 -1 309 6.9078771048225462e-05</internalNodes>
          <leafValues>
            6.8083286285400391e-01 -1.5398680232465267e-02</leafValues></_>
        <_>
          <internalNodes>
            0 -1 253 2.5700332480482757e-04</internalNodes>
          <leafValues>
            -4.4948542118072510e-01 2.2664820775389671e-02</leafValues></_>
        <_>
          <internalNodes>
            0 -1 118 4.5552335679531097e-02</internalNodes>
          <leafValues>
            -3.9135567843914032e-02 2.4227046966552734e-01</leafValues></_>
        <_>
          <internalNodes>
            0 -1 358 2.0071351900696754e-03</internalNodes>
          <leafValues>
            -4.7911477088928223e-01 1.9067130982875824e-02</leafValues></_>
        <_>
          <internalNodes>
            0 -1 268 1.2592197395861149e-02</internalNodes>
          <leafValues>
            1.5566985309123993e-01 -6.0561042279005051e-02</leafValues></_>
        <_>
          <internalNodes>
            0 -1 493 1.4198526740074158e-02</internalNodes>
          <leafValues>
            -1.7057035863399506e-01 5.5967282503843307e-02</leafValues></_>
        <_>
          <internalNodes>
            0 -1 561 3.1106829643249512e-02</internalNodes>
          <leafValues>
            7.9773955047130585e-02 -1.4538609981536865e-01</leafValues></_>
        <_>
          <internalNodes>
            0 -1 488 1.7036391422152519e-02</internalNodes>
          <leafValues>
            8.2362979650497437e-02 -1.0625365376472473e-01</leafValues></_>
        <_>
          <internalNodes>
            0 -1 183 2.1951464004814625e-03</internalNodes>
          <leafValues>
            -3.9190608263015747e-01 2.7113050222396851e-02</leafValues></_>
        <_>
          <internalNodes>
            0 -1 136 3.1425133347511292e-02</internalNodes>
          <leafValues>
            6.6546760499477386e-02 -1.2754641473293304e-01</leafValues></_>
        <_>
          <internalNodes>
            0 -1 405 4.4453505426645279e-02</internalNodes>
          <leafValues>
            -5.5600818246603012e-02 1.6673450171947479e-01</leafValues></_>
        <_>
          <internalNodes>
            0 -1 271 1.3707992620766163e-03</internalNodes>
          <leafValues>
            -7.7376949787139893e-01 1.0941890068352222e-02</leafValues></_>
        <_>
          <internalNodes>
            0 -1 491 8.9855100959539413e-03</internalNodes>
          <leafValues>
            -2.2218495607376099e-01 3.7569917738437653e-02</leafValues></_>
        <_>
          <internalNodes>
            0 -1 337 8.4577733650803566e-03</internalNodes>
          <leafValues>
            1.9257269799709320e-01 -5.9795029461383820e-02</leafValues></_>
        <_>
          <internalNodes>
            0 -1 384 6.4147777855396271e-02</internalNodes>
          <leafValues>
            1.4857483096420765e-02 -7.0223057270050049e-01</leafValues></_>
        <_>
          <internalNodes>
            0 -1 269 6.4556319266557693e-03</internalNodes>
          <leafValues>
            -3.0305206775665283e-01 2.3962492123246193e-02</leafValues></_>
        <_>
          <internalNodes>
            0 -1 554 3.3790201414376497e-03</internalNodes>
          <leafValues>
            6.3727360963821411e-01 -1.5412573702633381e-02</leafValues></_>
        <_>
          <internalNodes>
            0 -1 62 4.4004753232002258e-02</internalNodes>
          <leafValues>
            -3.9008967578411102e-02 2.0921850204467773e-01</leafValues></_>
        <_>
          <internalNodes>
            0 -1 415 2.5471907109022141e-02</internalNodes>
          <leafValues>
            8.8343739509582520e-02 -1.0066324472427368e-01</leafValues></_>
        <_>
          <internalNodes>
            0 -1 348 3.9943344891071320e-02</internalNodes>
          <leafValues>
            -4.1273400187492371e-02 1.8551316857337952e-01</leafValues></_>
        <_>
          <internalNodes>
            0 -1 151 7.5435653328895569e-02</internalNodes>
          <leafValues>
            -9.2343538999557495e-03 8.5872620344161987e-01</leafValues></_>
        <_>
          <internalNodes>
            0 -1 463 4.1929390281438828e-02</internalNodes>
          <leafValues>
            -4.9458421766757965e-02 1.4376434683799744e-01</leafValues></_>
        <_>
          <internalNodes>
            0 -1 361 3.7318617105484009e-02</internalNodes>
          <leafValues>
            -5.8678798377513885e-02 1.6422063112258911e-01</leafValues></_>
        <_>
          <internalNodes>
            0 -1 236 3.5386183299124241e-03</internalNodes>
          <leafValues>
            -3.7819325923919678e-01 2.1473065018653870e-02</leafValues></_>
        <_>
          <internalNodes>
            0 -1 549 3.5724646877497435e-03</internalNodes>
          <leafValues>
